booster[0]:
0:[f2121<6.51619] yes=1,no=2,missing=2
	1:leaf=475.371
	2:[f6733<3.58352] yes=3,no=4,missing=4
		3:leaf=233.907
		4:[f7461<2.77259] yes=5,no=6,missing=6
			5:leaf=220.154
			6:[f436<4.60517] yes=7,no=8,missing=8
				7:leaf=337.81
				8:[f516<2.39375] yes=9,no=10,missing=10
					9:leaf=380.577
					10:leaf=430.748
booster[1]:
0:[f2121<6.51619] yes=1,no=2,missing=2
	1:leaf=463.553
	2:[f6733<3.58352] yes=3,no=4,missing=4
		3:leaf=228.162
		4:[f7461<2.77259] yes=5,no=6,missing=6
			5:leaf=214.879
			6:[f436<4.60517] yes=7,no=8,missing=8
				7:leaf=329.412
				8:[f516<2.39375] yes=9,no=10,missing=10
					9:leaf=371.123
					10:leaf=420.031
booster[2]:
0:[f2121<6.51619] yes=1,no=2,missing=2
	1:leaf=452.03
	2:[f6733<3.58352] yes=3,no=4,missing=4
		3:leaf=222.558
		4:[f7461<2.77259] yes=5,no=6,missing=6
			5:leaf=209.731
			6:[f436<4.60517] yes=7,no=8,missing=8
				7:leaf=321.223
				8:[f516<2.39375] yes=9,no=10,missing=10
					9:leaf=361.904
					10:leaf=409.58
booster[3]:
0:[f2121<6.51619] yes=1,no=2,missing=2
	1:leaf=440.792
	2:[f6733<3.58352] yes=3,no=4,missing=4
		3:leaf=217.092
		4:[f7461<2.77259] yes=5,no=6,missing=6
			5:leaf=204.706
			6:[f436<4.60517] yes=7,no=8,missing=8
				7:leaf=313.238
				8:[f516<2.39375] yes=9,no=10,missing=10
					9:leaf=352.914
					10:leaf=399.389
booster[4]:
0:[f2121<6.51619] yes=1,no=2,missing=2
	1:leaf=429.834
	2:[f6733<3.58352] yes=3,no=4,missing=4
		3:leaf=211.76
		4:[f7461<2.77259] yes=5,no=6,missing=6
			5:leaf=199.802
			6:[f436<4.60517] yes=7,no=8,missing=8
				7:leaf=305.451
				8:[f516<2.39375] yes=9,no=10,missing=10
					9:leaf=344.148
					10:leaf=389.451
booster[5]:
0:[f2121<6.51619] yes=1,no=2,missing=2
	1:leaf=419.149
	2:[f6733<3.58352] yes=3,no=4,missing=4
		3:leaf=206.558
		4:[f7461<2.77259] yes=5,no=6,missing=6
			5:leaf=195.015
			6:[f436<4.60517] yes=7,no=8,missing=8
				7:leaf=297.857
				8:[f516<2.39375] yes=9,no=10,missing=10
					9:leaf=335.599
					10:leaf=379.761
booster[6]:
0:[f2121<6.51619] yes=1,no=2,missing=2
	1:leaf=408.729
	2:[f6733<3.58352] yes=3,no=4,missing=4
		3:leaf=201.485
		4:[f7461<2.77259] yes=5,no=6,missing=6
			5:leaf=190.343
			6:[f436<4.60517] yes=7,no=8,missing=8
				7:leaf=290.453
				8:[f516<2.39375] yes=9,no=10,missing=10
					9:leaf=327.262
					10:leaf=370.312
booster[7]:
0:[f2121<6.51619] yes=1,no=2,missing=2
	1:leaf=398.568
	2:[f6733<0.89588] yes=3,no=4,missing=3
		3:[f7461<0.89588] yes=5,no=6,missing=5
			5:[f436<4.60517] yes=7,no=8,missing=8
				7:leaf=283.071
				8:[f354<5.99147] yes=9,no=10,missing=10
					9:leaf=399.442
					10:[f16178<3.21888] yes=11,no=12,missing=12
						11:leaf=133.136
						12:[f128<4.82025] yes=13,no=14,missing=13
							13:leaf=335.16
							14:leaf=93.4622
			6:leaf=178.1
		4:leaf=186.871
booster[8]:
0:[f2121<6.51619] yes=1,no=2,missing=2
	1:leaf=388.66
	2:[f6733<0.89588] yes=3,no=4,missing=3
		3:[f7461<0.89588] yes=5,no=6,missing=5
			5:[f436<4.60517] yes=7,no=8,missing=8
				7:leaf=276.033
				8:[f354<5.99147] yes=9,no=10,missing=10
					9:leaf=389.678
					10:[f16178<3.21888] yes=11,no=12,missing=12
						11:leaf=130.64
						12:[f128<4.82025] yes=13,no=14,missing=13
							13:leaf=326.807
							14:leaf=92.294
			6:leaf=173.86
		4:leaf=182.295
booster[9]:
0:[f2121<6.51619] yes=1,no=2,missing=2
	1:leaf=378.998
	2:[f6733<0.89588] yes=3,no=4,missing=3
		3:[f7461<0.89588] yes=5,no=6,missing=5
			5:[f436<4.60517] yes=7,no=8,missing=8
				7:leaf=269.17
				8:[f354<5.99147] yes=9,no=10,missing=10
					9:leaf=380.152
					10:[f16178<3.21888] yes=11,no=12,missing=12
						11:leaf=128.191
						12:[f128<4.82025] yes=13,no=14,missing=13
							13:leaf=318.662
							14:leaf=91.1403
			6:leaf=169.72
		4:leaf=177.831
booster[10]:
0:[f2121<6.51619] yes=1,no=2,missing=2
	1:leaf=369.576
	2:[f6733<0.89588] yes=3,no=4,missing=3
		3:[f7461<0.89588] yes=5,no=6,missing=5
			5:[f436<4.60517] yes=7,no=8,missing=8
				7:leaf=262.478
				8:[f354<5.99147] yes=9,no=10,missing=10
					9:leaf=370.859
					10:[f16178<3.21888] yes=11,no=12,missing=12
						11:leaf=125.787
						12:[f128<4.82025] yes=13,no=14,missing=13
							13:leaf=310.72
							14:leaf=90.001
			6:leaf=165.68
		4:leaf=173.476
booster[11]:
0:[f2121<6.51619] yes=1,no=2,missing=2
	1:leaf=360.389
	2:[f6733<0.89588] yes=3,no=4,missing=3
		3:[f7461<0.89588] yes=5,no=6,missing=5
			5:[f436<4.60517] yes=7,no=8,missing=8
				7:[f2674<1.49787] yes=9,no=10,missing=9
					9:leaf=260.801
					10:leaf=197.279
				8:[f354<5.99147] yes=11,no=12,missing=12
					11:leaf=361.794
					12:[f16178<3.21888] yes=13,no=14,missing=14
						13:leaf=123.429
						14:[f33<1.49787] yes=15,no=16,missing=15
							15:leaf=88.119
							16:leaf=302.98
			6:leaf=161.735
		4:leaf=169.227
booster[12]:
0:[f2121<6.51619] yes=1,no=2,missing=2
	1:leaf=351.43
	2:[f6733<0.89588] yes=3,no=4,missing=3
		3:[f7461<0.89588] yes=5,no=6,missing=5
			5:[f436<4.60517] yes=7,no=8,missing=8
				7:[f215<0.89588] yes=9,no=10,missing=9
					9:leaf=278.114
					10:leaf=236.398
				8:[f354<5.99147] yes=11,no=12,missing=12
					11:leaf=352.95
					12:[f16178<3.21888] yes=13,no=14,missing=14
						13:leaf=121.114
						14:[f128<4.82025] yes=15,no=16,missing=15
							15:leaf=295.441
							16:leaf=85.0888
			6:leaf=157.884
		4:leaf=165.083
booster[13]:
0:[f2121<6.51619] yes=1,no=2,missing=2
	1:leaf=342.693
	2:[f6733<0.89588] yes=3,no=4,missing=3
		3:[f7461<0.89588] yes=5,no=6,missing=5
			5:[f436<4.60517] yes=7,no=8,missing=8
				7:[f215<0.89588] yes=9,no=10,missing=9
					9:leaf=271.295
					10:leaf=230.533
				8:[f354<5.99147] yes=11,no=12,missing=12
					11:leaf=344.323
					12:[f16178<3.21888] yes=13,no=14,missing=14
						13:leaf=118.843
						14:[f33<1.49787] yes=15,no=16,missing=15
							15:leaf=83.3245
							16:[f128<4.82025] yes=17,no=18,missing=17
								17:leaf=288.451
								18:leaf=84.0251
			6:leaf=154.125
		4:leaf=161.04
booster[14]:
0:[f2121<6.51619] yes=1,no=2,missing=2
	1:leaf=334.174
	2:[f6733<0.89588] yes=3,no=4,missing=3
		3:[f7461<0.89588] yes=5,no=6,missing=5
			5:[f436<4.60517] yes=7,no=8,missing=8
				7:[f2674<1.49787] yes=9,no=10,missing=9
					9:leaf=242.093
					10:leaf=181.482
				8:[f354<5.99147] yes=11,no=12,missing=12
					11:leaf=335.906
					12:[f16178<3.21888] yes=13,no=14,missing=14
						13:leaf=116.615
						14:leaf=280.552
			6:leaf=150.455
		4:leaf=157.096
booster[15]:
0:[f2121<6.51619] yes=1,no=2,missing=2
	1:leaf=325.867
	2:[f6733<0.89588] yes=3,no=4,missing=3
		3:[f7461<0.89588] yes=5,no=6,missing=5
			5:[f436<4.60517] yes=7,no=8,missing=8
				7:[f215<0.89588] yes=9,no=10,missing=9
					9:leaf=258.736
					10:leaf=218.993
				8:[f354<5.99147] yes=11,no=12,missing=12
					11:leaf=327.695
					12:[f16178<3.21888] yes=13,no=14,missing=14
						13:leaf=114.429
						14:[f33<1.49787] yes=15,no=16,missing=15
							15:leaf=78.7761
							16:[f128<4.82025] yes=17,no=18,missing=17
								17:leaf=274.27
								18:leaf=79.4679
			6:leaf=146.873
		4:leaf=153.249
booster[16]:
0:[f2121<6.51619] yes=1,no=2,missing=2
	1:leaf=317.766
	2:[f6733<0.89588] yes=3,no=4,missing=3
		3:[f7461<0.89588] yes=5,no=6,missing=5
			5:[f436<4.60517] yes=7,no=8,missing=8
				7:[f215<0.89588] yes=9,no=10,missing=9
					9:leaf=252.392
					10:leaf=213.56
				8:[f516<2.39375] yes=11,no=12,missing=12
					11:leaf=251.412
					12:[f459<1.49787] yes=13,no=14,missing=13
						13:[f7461<1.3863] yes=15,no=16,missing=16
							15:leaf=104.858
							16:leaf=290.466
						14:leaf=111.772
			6:leaf=143.376
		4:leaf=149.496
booster[17]:
0:[f2121<6.51619] yes=1,no=2,missing=2
	1:leaf=309.866
	2:[f6733<0.89588] yes=3,no=4,missing=3
		3:[f7461<0.89588] yes=5,no=6,missing=5
			5:[f436<4.60517] yes=7,no=8,missing=8
				7:[f2674<1.49787] yes=9,no=10,missing=9
					9:leaf=224.734
					10:leaf=166.875
				8:[f354<5.99147] yes=11,no=12,missing=12
					11:leaf=312.584
					12:[f16178<3.21888] yes=13,no=14,missing=14
						13:leaf=110.23
						14:[f275<2.8029] yes=15,no=16,missing=16
							15:leaf=274.457
							16:leaf=245.398
			6:leaf=139.962
		4:leaf=145.835
booster[18]:
0:[f2121<6.51619] yes=1,no=2,missing=2
	1:leaf=302.163
	2:[f6733<0.89588] yes=3,no=4,missing=3
		3:[f7461<0.89588] yes=5,no=6,missing=5
			5:[f436<4.60517] yes=7,no=8,missing=8
				7:[f215<0.89588] yes=9,no=10,missing=9
					9:leaf=240.721
					10:[f2674<1.24245] yes=13,no=14,missing=13
						13:leaf=208.79
						14:leaf=159.529
				8:[f354<5.99147] yes=11,no=12,missing=12
					11:leaf=304.943
					12:[f16178<3.21888] yes=15,no=16,missing=16
						15:leaf=108.164
						16:[f275<2.8029] yes=17,no=18,missing=18
							17:leaf=267.639
							18:leaf=239.299
			6:leaf=136.63
		4:leaf=142.263
booster[19]:
0:[f2121<6.51619] yes=1,no=2,missing=2
	1:leaf=294.652
	2:[f6733<0.89588] yes=3,no=4,missing=3
		3:[f7461<0.89588] yes=5,no=6,missing=5
			5:[f436<4.60517] yes=7,no=8,missing=8
				7:[f215<0.89588] yes=9,no=10,missing=9
					9:leaf=234.819
					10:[f2674<1.24245] yes=13,no=14,missing=13
						13:leaf=203.617
						14:leaf=155.74
				8:[f354<5.99147] yes=11,no=12,missing=12
					11:leaf=297.489
					12:[f16178<3.21888] yes=15,no=16,missing=16
						15:leaf=106.136
						16:[f275<2.8029] yes=17,no=18,missing=18
							17:leaf=260.991
							18:leaf=233.351
			6:leaf=133.377
		4:leaf=138.779
booster[20]:
0:[f2121<6.51619] yes=1,no=2,missing=2
	1:leaf=287.327
	2:[f6733<0.89588] yes=3,no=4,missing=3
		3:[f7461<0.89588] yes=5,no=6,missing=5
			5:[f436<4.60517] yes=7,no=8,missing=8
				7:[f215<0.89588] yes=9,no=10,missing=9
					9:leaf=229.061
					10:leaf=192.984
				8:[f354<5.99147] yes=11,no=12,missing=12
					11:leaf=290.217
					12:[f16178<3.21888] yes=13,no=14,missing=14
						13:leaf=104.146
						14:[f33<1.49787] yes=15,no=16,missing=15
							15:leaf=67.505
							16:[f128<4.82025] yes=17,no=18,missing=17
								17:[f215<0.89588] yes=19,no=20,missing=19
									19:leaf=265.727
									20:leaf=233.631
								18:leaf=68.1018
			6:leaf=130.201
		4:leaf=135.381
booster[21]:
0:[f2121<6.51619] yes=1,no=2,missing=2
	1:leaf=280.184
	2:[f6733<0.89588] yes=3,no=4,missing=3
		3:[f7461<0.89588] yes=5,no=6,missing=5
			5:[f436<4.60517] yes=7,no=8,missing=8
				7:[f215<0.89588] yes=9,no=10,missing=9
					9:leaf=223.445
					10:[f2674<1.24245] yes=13,no=14,missing=13
						13:leaf=193.79
						14:leaf=147.458
				8:[f516<2.39375] yes=11,no=12,missing=12
					11:leaf=221.373
					12:[f459<1.49787] yes=15,no=16,missing=15
						15:[f7461<1.3863] yes=17,no=18,missing=18
							17:leaf=92.9921
							18:leaf=256.522
						16:leaf=99.4046
			6:leaf=127.101
		4:leaf=132.065
booster[22]:
0:[f2121<6.51619] yes=1,no=2,missing=2
	1:leaf=273.219
	2:[f6733<0.89588] yes=3,no=4,missing=3
		3:[f7461<0.89588] yes=5,no=6,missing=5
			5:[f436<2.19101] yes=7,no=8,missing=8
				7:[f215<0.89588] yes=9,no=10,missing=9
					9:leaf=217.966
					10:[f2674<1.24245] yes=13,no=14,missing=13
						13:leaf=188.758
						14:leaf=143.956
				8:[f354<5.99147] yes=11,no=12,missing=12
					11:leaf=276.852
					12:[f16178<3.21888] yes=15,no=16,missing=16
						15:leaf=100.369
						16:[f275<2.8029] yes=17,no=18,missing=18
							17:leaf=242.143
							18:leaf=216.084
			6:leaf=124.075
		4:leaf=128.831
booster[23]:
0:[f2121<6.51619] yes=1,no=2,missing=2
	1:leaf=266.427
	2:[f6733<0.89588] yes=3,no=4,missing=3
		3:[f7461<0.89588] yes=5,no=6,missing=5
			5:[f436<4.60517] yes=7,no=8,missing=8
				7:[f215<0.89588] yes=9,no=10,missing=9
					9:leaf=212.622
					10:[f2674<1.24245] yes=13,no=14,missing=13
						13:leaf=184.306
						14:leaf=140.537
				8:[f354<5.99147] yes=11,no=12,missing=12
					11:leaf=270.085
					12:[f267<7.78364] yes=15,no=16,missing=16
						15:[f215<2.86179] yes=17,no=18,missing=18
							17:[f9<4.03043] yes=19,no=20,missing=19
								19:leaf=216.401
								20:leaf=62.7978
							18:leaf=249.619
						16:leaf=98.2245
			6:leaf=121.121
		4:leaf=125.676
booster[24]:
0:[f2121<6.51619] yes=1,no=2,missing=2
	1:[f436<1.24245] yes=3,no=4,missing=3
		3:leaf=260.423
		4:leaf=75.0885
	2:[f6733<0.89588] yes=5,no=6,missing=5
		5:[f7461<0.89588] yes=7,no=8,missing=7
			7:[f436<2.19101] yes=9,no=10,missing=10
				9:[f215<0.89588] yes=11,no=12,missing=11
					11:leaf=207.408
					12:[f2674<1.24245] yes=15,no=16,missing=15
						15:[f561<1.24245] yes=19,no=20,missing=19
							19:leaf=185.373
							20:leaf=138.951
						16:leaf=137.199
				10:[f354<5.99147] yes=13,no=14,missing=14
					13:leaf=263.483
					14:[f275<2.8029] yes=17,no=18,missing=18
						17:leaf=230.588
						18:[f16178<3.21888] yes=21,no=22,missing=22
							21:leaf=95.9068
							22:leaf=205.215
			8:leaf=118.237
		6:leaf=122.598
booster[25]:
0:[f2121<6.51619] yes=1,no=2,missing=2
	1:[f436<1.24245] yes=3,no=4,missing=3
		3:leaf=253.949
		4:leaf=74.1499
	2:[f6733<0.89588] yes=5,no=6,missing=5
		5:[f7461<0.89588] yes=7,no=8,missing=7
			7:[f436<2.19101] yes=9,no=10,missing=10
				9:[f215<0.89588] yes=11,no=12,missing=11
					11:leaf=202.323
					12:leaf=170.115
				10:[f354<5.99147] yes=13,no=14,missing=14
					13:leaf=257.042
					14:[f275<2.8029] yes=15,no=16,missing=16
						15:leaf=224.86
						16:[f267<7.78364] yes=17,no=18,missing=18
							17:leaf=200.119
							18:leaf=93.9014
			8:leaf=115.422
		6:leaf=119.596
booster[26]:
0:[f2121<6.51619] yes=1,no=2,missing=2
	1:leaf=247.068
	2:[f6733<0.89588] yes=3,no=4,missing=3
		3:[f7461<0.89588] yes=5,no=6,missing=5
			5:[f436<2.19101] yes=7,no=8,missing=8
				7:[f215<0.89588] yes=9,no=10,missing=9
					9:leaf=197.362
					10:[f2674<1.24245] yes=13,no=14,missing=13
						13:[f561<1.24245] yes=17,no=18,missing=17
							17:[f87<2.62875] yes=23,no=24,missing=23
								23:leaf=51.1932
								24:leaf=177.378
							18:leaf=131.654
						14:leaf=129.901
				8:[f354<5.99147] yes=11,no=12,missing=12
					11:leaf=250.759
					12:[f215<2.86179] yes=15,no=16,missing=16
						15:[f16178<3.21888] yes=19,no=20,missing=20
							19:leaf=91.684
							20:[f9<4.03043] yes=25,no=26,missing=25
								25:leaf=200.638
								26:leaf=56.9461
						16:[f114<2.34107] yes=21,no=22,missing=21
							21:leaf=232.905
							22:leaf=58.3402
			6:leaf=112.674
		4:leaf=116.667
booster[27]:
0:[f2121<6.51619] yes=1,no=2,missing=2
	1:[f436<1.24245] yes=3,no=4,missing=3
		3:leaf=241.494
		4:leaf=70.1347
	2:[f6733<0.89588] yes=5,no=6,missing=5
		5:[f7461<0.89588] yes=7,no=8,missing=7
			7:[f436<2.19101] yes=9,no=10,missing=10
				9:[f215<0.89588] yes=11,no=12,missing=11
					11:leaf=192.523
					12:[f2674<1.24245] yes=15,no=16,missing=15
						15:[f561<1.24245] yes=19,no=20,missing=19
							19:[f87<2.62875] yes=23,no=24,missing=23
								23:leaf=50.5533
								24:leaf=172.991
							20:leaf=128.546
						16:leaf=126.816
				10:[f516<2.39375] yes=13,no=14,missing=14
					13:leaf=189.807
					14:[f459<1.49787] yes=17,no=18,missing=17
						17:[f7461<1.3863] yes=21,no=22,missing=22
							21:leaf=81.2651
							22:leaf=221.007
						18:leaf=85.9387
			8:leaf=109.991
		6:leaf=113.81
booster[28]:
0:[f2121<6.51619] yes=1,no=2,missing=2
	1:leaf=234.946
	2:[f6733<0.89588] yes=3,no=4,missing=3
		3:[f7461<0.89588] yes=5,no=6,missing=5
			5:[f436<4.60517] yes=7,no=8,missing=8
				7:[f215<0.89588] yes=9,no=10,missing=9
					9:leaf=187.803
					10:[f2674<1.24245] yes=13,no=14,missing=13
						13:[f561<1.24245] yes=17,no=18,missing=17
							17:leaf=168.148
							18:leaf=125.51
						14:leaf=123.804
				8:[f354<5.99147] yes=11,no=12,missing=12
					11:leaf=239.227
					12:[f215<2.86179] yes=15,no=16,missing=16
						15:[f16178<3.21888] yes=19,no=20,missing=20
							19:leaf=88.3828
							20:[f9<4.03043] yes=23,no=24,missing=23
								23:leaf=190.554
								24:leaf=55.2185
						16:[f114<2.34107] yes=21,no=22,missing=21
							21:leaf=222.036
							22:leaf=56.5367
			6:leaf=107.372
		4:leaf=111.022
booster[29]:
0:[f2121<6.51619] yes=1,no=2,missing=2
	1:[f436<1.24245] yes=3,no=4,missing=3
		3:leaf=229.651
		4:leaf=66.3212
	2:[f6733<0.89588] yes=5,no=6,missing=5
		5:[f7461<0.89588] yes=7,no=8,missing=7
			7:[f436<4.60517] yes=9,no=10,missing=10
				9:[f215<0.89588] yes=11,no=12,missing=11
					11:[f9<0.89588] yes=15,no=16,missing=16
						15:leaf=53.7635
						16:leaf=184.681
					12:[f2674<1.24245] yes=17,no=18,missing=17
						17:[f561<1.24245] yes=21,no=22,missing=21
							21:[f87<2.62875] yes=25,no=26,missing=25
								25:leaf=47.8195
								26:leaf=164.716
							22:leaf=122.547
						18:leaf=120.863
				10:[f516<2.39375] yes=13,no=14,missing=14
					13:leaf=180.229
					14:[f459<1.49787] yes=19,no=20,missing=19
						19:[f7461<1.3863] yes=23,no=24,missing=24
							23:leaf=78.7141
							24:leaf=210.518
						20:leaf=82.8692
			8:leaf=104.816
		6:leaf=108.304
booster[30]:
0:[f2121<6.51619] yes=1,no=2,missing=2
	1:[f436<1.24245] yes=3,no=4,missing=3
		3:leaf=223.942
		4:leaf=65.4922
	2:[f6733<0.89588] yes=5,no=6,missing=5
		5:[f7461<0.89588] yes=7,no=8,missing=7
			7:[f436<4.60517] yes=9,no=10,missing=10
				9:[f215<0.89588] yes=11,no=12,missing=11
					11:leaf=178.732
					12:[f2674<1.24245] yes=15,no=16,missing=15
						15:[f561<1.24245] yes=19,no=20,missing=19
							19:leaf=159.945
							20:leaf=119.653
						16:leaf=117.993
				10:[f354<5.99147] yes=13,no=14,missing=14
					13:leaf=228.233
					14:[f215<2.86179] yes=17,no=18,missing=18
						17:[f16178<3.21888] yes=21,no=22,missing=22
							21:leaf=85.1978
							22:leaf=180.664
						18:[f114<2.34107] yes=23,no=24,missing=23
							23:leaf=211.685
							24:leaf=54.7941
			8:leaf=102.32
		6:leaf=105.651
booster[31]:
0:[f2121<6.51619] yes=1,no=2,missing=2
	1:leaf=217.875
	2:[f6733<0.89588] yes=3,no=4,missing=3
		3:[f7461<0.89588] yes=5,no=6,missing=5
			5:[f436<2.19101] yes=7,no=8,missing=8
				7:[f215<0.89588] yes=9,no=10,missing=9
					9:[f9<0.89588] yes=13,no=14,missing=14
						13:leaf=50.8573
						14:leaf=175.774
					10:[f2674<1.24245] yes=15,no=16,missing=15
						15:[f561<1.24245] yes=19,no=20,missing=19
							19:[f87<2.62875] yes=23,no=24,missing=23
								23:leaf=45.2225
								24:[f341<0.89588] yes=25,no=26,missing=25
									25:leaf=162.954
									26:leaf=122.909
							20:leaf=116.828
						16:leaf=115.191
				8:[f516<2.39375] yes=11,no=12,missing=12
					11:leaf=171.136
					12:[f459<1.49787] yes=17,no=18,missing=17
						17:[f7461<1.3863] yes=21,no=22,missing=22
							21:leaf=75.1866
							22:leaf=200.26
						18:leaf=79.908
			6:leaf=99.8837
		4:leaf=103.064
booster[32]:
0:[f2121<6.51619] yes=1,no=2,missing=2
	1:[f2674<1.24245] yes=3,no=4,missing=3
		3:[f436<1.24245] yes=7,no=8,missing=7
			7:leaf=217.817
			8:leaf=61.9501
		4:leaf=168.83
	2:[f6733<0.89588] yes=5,no=6,missing=5
		5:[f7461<0.89588] yes=9,no=10,missing=9
			9:[f436<4.60517] yes=11,no=12,missing=12
				11:[f215<0.89588] yes=13,no=14,missing=13
					13:leaf=170.1
					14:[f2674<1.24245] yes=17,no=18,missing=17
						17:[f561<1.24245] yes=21,no=22,missing=21
							21:[f87<2.62875] yes=27,no=28,missing=27
								27:leaf=44.6572
								28:[f341<0.89588] yes=29,no=30,missing=29
									29:leaf=159.036
									30:leaf=119.998
							22:leaf=114.07
						18:leaf=112.455
				12:[f354<5.99147] yes=15,no=16,missing=16
					15:leaf=217.759
					16:[f215<2.86179] yes=19,no=20,missing=20
						19:[f275<2.8029] yes=23,no=24,missing=24
							23:leaf=182.05
							24:leaf=159.629
						20:[f114<2.34107] yes=25,no=26,missing=25
							25:leaf=201.829
							26:leaf=53.1103
			10:leaf=97.5055
		6:leaf=100.54
booster[33]:
0:[f2121<6.51619] yes=1,no=2,missing=2
	1:leaf=207.21
	2:[f6733<0.89588] yes=3,no=4,missing=3
		3:[f7461<0.89588] yes=5,no=6,missing=5
			5:[f436<4.60517] yes=7,no=8,missing=8
				7:[f215<0.89588] yes=9,no=10,missing=9
					9:[f9<0.89588] yes=13,no=14,missing=14
						13:leaf=48.0954
						14:leaf=167.297
					10:[f2674<1.24245] yes=15,no=16,missing=15
						15:[f561<1.24245] yes=19,no=20,missing=19
							19:leaf=148.45
							20:leaf=111.377
						16:leaf=109.784
				8:[f354<5.99147] yes=11,no=12,missing=12
					11:leaf=212.436
					12:[f215<2.86179] yes=17,no=18,missing=18
						17:[f275<2.8029] yes=21,no=22,missing=22
							21:leaf=177.536
							22:leaf=155.667
						18:[f114<2.34107] yes=23,no=24,missing=23
							23:leaf=196.86
							24:leaf=52.4465
			6:leaf=95.184
		4:leaf=98.0776
booster[34]:
0:[f2121<0.89588] yes=1,no=2,missing=1
	1:[f6733<0.89588] yes=3,no=4,missing=3
		3:[f7461<0.89588] yes=7,no=8,missing=7
			7:[f436<4.60517] yes=9,no=10,missing=10
				9:[f215<0.89588] yes=11,no=12,missing=11
					11:[f9<0.89588] yes=15,no=16,missing=16
						15:leaf=47.4942
						16:leaf=163.197
					12:leaf=136.151
				10:[f516<2.39375] yes=13,no=14,missing=14
					13:leaf=158.709
					14:[f459<1.49787] yes=17,no=18,missing=17
						17:[f7461<1.3863] yes=19,no=20,missing=20
							19:leaf=68.6786
							20:leaf=186.006
						18:leaf=73.8088
			8:leaf=92.9177
		4:leaf=95.6757
	2:[f2674<1.24245] yes=5,no=6,missing=5
		5:leaf=207.962
		6:leaf=160.033
booster[35]:
0:[f2121<0.89588] yes=1,no=2,missing=1
	1:[f6733<0.89588] yes=3,no=4,missing=3
		3:[f7461<0.89588] yes=7,no=8,missing=7
			7:[f436<2.19101] yes=9,no=10,missing=10
				9:[f215<0.89588] yes=11,no=12,missing=11
					11:leaf=157.939
					12:[f2674<1.24245] yes=15,no=16,missing=15
						15:[f561<1.24245] yes=19,no=20,missing=19
							19:[f341<0.89588] yes=25,no=26,missing=25
								25:[f87<2.62875] yes=29,no=30,missing=29
									29:leaf=40.5415
									30:leaf=147.992
								26:leaf=110.416
							20:leaf=105.966
						16:leaf=103.943
				10:[f354<5.99147] yes=13,no=14,missing=14
					13:leaf=202.696
					14:[f215<5.78075] yes=17,no=18,missing=18
						17:[f16178<3.21888] yes=21,no=22,missing=22
							21:leaf=74.8679
							22:[f9<4.03043] yes=27,no=28,missing=27
								27:[f516<4.96981] yes=31,no=32,missing=32
									31:leaf=149.451
									32:leaf=169.038
								28:leaf=45.5465
						18:[f114<2.34107] yes=23,no=24,missing=23
							23:leaf=187.792
							24:leaf=50.8683
			8:leaf=90.7054
		4:leaf=93.3327
	2:[f2674<1.24245] yes=5,no=6,missing=5
		5:leaf=202.798
		6:leaf=156.223
booster[36]:
0:[f2121<6.51619] yes=1,no=2,missing=2
	1:[f2674<1.24245] yes=3,no=4,missing=3
		3:[f436<1.24245] yes=7,no=8,missing=7
			7:leaf=197.116
			8:leaf=55.5591
		4:leaf=152.265
	2:[f6733<0.89588] yes=5,no=6,missing=5
		5:[f354<5.99147] yes=9,no=10,missing=10
			9:leaf=197.741
			10:[f275<2.8029] yes=11,no=12,missing=12
				11:leaf=170.867
				12:[f7461<0.89588] yes=13,no=14,missing=13
					13:[f215<2.86179] yes=15,no=16,missing=16
						15:[f28791<2.19722] yes=17,no=18,missing=18
							17:leaf=65.5015
							18:[f24613<2.19722] yes=19,no=20,missing=20
								19:leaf=66.5444
								20:[f6487<1.24245] yes=21,no=22,missing=21
									21:[f8744<3.21888] yes=23,no=24,missing=24
										23:leaf=68.6834
										24:[f23773<1.3863] yes=25,no=26,missing=26
											25:leaf=59.0828
											26:[f5412<1.24245] yes=27,no=28,missing=27
												27:[f27192<1.3863] yes=29,no=30,missing=30
													29:leaf=59.5807
													30:leaf=141.606
												28:leaf=59.2779
									22:leaf=67.0019
						16:leaf=163.693
					14:leaf=88.5457
		6:leaf=91.047
booster[37]:
0:[f2121<0.89588] yes=1,no=2,missing=1
	1:[f6733<0.89588] yes=3,no=4,missing=3
		3:[f7461<0.89588] yes=7,no=8,missing=7
			7:[f436<2.19101] yes=9,no=10,missing=10
				9:[f215<0.89588] yes=11,no=12,missing=11
					11:leaf=150.22
					12:[f2674<1.24245] yes=15,no=16,missing=15
						15:[f561<1.24245] yes=19,no=20,missing=19
							19:[f341<0.89588] yes=25,no=26,missing=25
								25:[f87<2.62875] yes=29,no=30,missing=29
									29:leaf=39.2159
									30:leaf=140.848
								26:leaf=104.447
							20:leaf=100.722
						16:leaf=98.9749
				10:[f354<5.99147] yes=13,no=14,missing=14
					13:leaf=192.908
					14:[f215<5.78075] yes=17,no=18,missing=18
						17:[f16178<3.21888] yes=21,no=22,missing=22
							21:leaf=71.2648
							22:[f9<4.03043] yes=27,no=28,missing=27
								27:leaf=151.972
								28:leaf=44.2386
						18:[f114<2.34107] yes=23,no=24,missing=23
							23:leaf=179.041
							24:leaf=48.1863
			8:leaf=86.4375
		4:leaf=88.8173
	2:[f2674<1.24245] yes=5,no=6,missing=5
		5:leaf=192.867
		6:leaf=148.878
booster[38]:
0:[f2121<6.51619] yes=1,no=2,missing=2
	1:[f2674<1.24245] yes=3,no=4,missing=3
		3:[f436<1.24245] yes=7,no=8,missing=7
			7:leaf=187.47
			8:leaf=53.6056
		4:leaf=145.075
	2:[f6733<0.89588] yes=5,no=6,missing=5
		5:[f354<5.99147] yes=9,no=10,missing=10
			9:leaf=188.192
			10:[f275<2.8029] yes=11,no=12,missing=12
				11:leaf=162.713
				12:[f7461<0.89588] yes=13,no=14,missing=13
					13:[f215<2.86179] yes=15,no=16,missing=16
						15:[f5992<0.89588] yes=17,no=18,missing=18
							17:leaf=62.7426
							18:[f37495<3.89182] yes=19,no=20,missing=20
								19:leaf=62.8926
								20:[f11741<2.19722] yes=21,no=22,missing=22
									21:leaf=80.3301
									22:[f6487<1.24245] yes=23,no=24,missing=23
										23:[f8744<3.21888] yes=25,no=26,missing=26
											25:leaf=65.6912
											26:[f588<1.44519] yes=27,no=28,missing=27
												27:[f13147<1.24245] yes=29,no=30,missing=29
													29:[f4276<1.77767] yes=31,no=32,missing=31
														31:leaf=135.812
														32:leaf=56.873
													30:leaf=74.4638
												28:leaf=56.033
										24:leaf=63.8898
						16:leaf=155.666
					14:leaf=84.3794
		6:leaf=86.6421
booster[39]:
0:[f2121<6.51619] yes=1,no=2,missing=2
	1:[f2674<1.24245] yes=3,no=4,missing=3
		3:[f436<1.24245] yes=7,no=8,missing=7
			7:leaf=182.813
			8:leaf=52.9355
		4:leaf=141.613
	2:[f6733<0.89588] yes=5,no=6,missing=5
		5:[f354<5.99147] yes=9,no=10,missing=10
			9:leaf=183.592
			10:[f275<2.8029] yes=11,no=12,missing=12
				11:leaf=158.671
				12:[f7461<0.89588] yes=13,no=14,missing=13
					13:[f215<2.86179] yes=15,no=16,missing=16
						15:[f24613<2.19722] yes=17,no=18,missing=18
							17:leaf=61.2303
							18:[f28791<2.19722] yes=19,no=20,missing=20
								19:leaf=61.5037
								20:[f6487<1.24245] yes=21,no=22,missing=21
									21:[f51193<2.24991] yes=23,no=24,missing=23
										23:[f27192<1.3863] yes=25,no=26,missing=26
											25:leaf=54.8406
											26:[f16178<3.21888] yes=27,no=28,missing=28
												27:leaf=72.0063
												28:[f2859<0.89588] yes=29,no=30,missing=29
													29:[f10514<0.89588] yes=31,no=32,missing=32
														31:leaf=55.5367
														32:[f5412<1.24245] yes=33,no=34,missing=33
															33:[f19188<0.89588] yes=35,no=36,missing=36
																35:leaf=55.8714
																36:[f14885<2.19722] yes=37,no=38,missing=38
																	37:leaf=55.8935
																	38:leaf=133.45
															34:leaf=55.6289
													30:leaf=77.3387
										24:leaf=64.265
									22:leaf=62.6919
						16:leaf=151.827
					14:leaf=82.3704
		6:leaf=84.5203
booster[40]:
0:[f2121<0.89588] yes=1,no=2,missing=1
	1:[f6733<0.89588] yes=3,no=4,missing=3
		3:[f7461<0.89588] yes=5,no=6,missing=5
			5:[f436<2.19101] yes=7,no=8,missing=8
				7:[f215<0.89588] yes=9,no=10,missing=9
					9:[f9<0.89588] yes=13,no=14,missing=14
						13:leaf=39.9206
						14:leaf=140.42
					10:[f17913<1.24245] yes=15,no=16,missing=16
						15:leaf=64.6849
						16:[f2674<1.49787] yes=19,no=20,missing=19
							19:[f341<0.89588] yes=23,no=24,missing=23
								23:[f87<2.62875] yes=25,no=26,missing=25
									25:leaf=52.0946
									26:leaf=126.79
								24:leaf=95.4545
							20:leaf=90.1475
				8:[f516<2.52493] yes=11,no=12,missing=12
					11:leaf=137.132
					12:[f459<1.49787] yes=17,no=18,missing=17
						17:[f7461<1.3863] yes=21,no=22,missing=22
							21:leaf=61.0804
							22:leaf=160.625
						18:leaf=63.9438
			6:leaf=80.4092
		4:leaf=82.4504
	2:leaf=174.924
booster[41]:
0:[f2121<0.89588] yes=1,no=2,missing=1
	1:[f6733<0.89588] yes=3,no=4,missing=3
		3:[f354<5.99147] yes=7,no=8,missing=8
			7:leaf=175.178
			8:[f275<2.8029] yes=9,no=10,missing=10
				9:leaf=150.598
				10:[f7461<0.89588] yes=11,no=12,missing=11
					11:[f215<2.86179] yes=13,no=14,missing=14
						13:[f24613<2.19722] yes=15,no=16,missing=16
							15:leaf=58.1629
							16:[f5992<0.89588] yes=17,no=18,missing=18
								17:leaf=58.3186
								18:[f37495<3.89182] yes=19,no=20,missing=20
									19:leaf=58.9555
									20:[f6487<1.24245] yes=21,no=22,missing=21
										21:[f51193<2.24991] yes=23,no=24,missing=23
											23:[f341<1.24245] yes=25,no=26,missing=25
												25:[f16178<3.21888] yes=27,no=28,missing=28
													27:leaf=69.1706
													28:[f4290<0.89588] yes=29,no=30,missing=29
														29:[f14885<2.19722] yes=31,no=32,missing=32
															31:leaf=53.4595
															32:leaf=129.175
														30:leaf=52.8853
												26:leaf=104.167
											24:leaf=61.0709
										22:leaf=59.9853
						14:leaf=144.745
					12:leaf=78.4947
		4:leaf=80.4312
	2:[f2674<1.24245] yes=5,no=6,missing=5
		5:leaf=174.539
		6:leaf=134.342
booster[42]:
0:[f2121<6.51619] yes=1,no=2,missing=2
	1:[f2674<1.24245] yes=3,no=4,missing=3
		3:[f436<1.24245] yes=7,no=8,missing=7
			7:leaf=169.656
			8:leaf=49.0743
		4:leaf=130.852
	2:[f6733<0.89588] yes=5,no=6,missing=5
		5:[f354<5.99147] yes=9,no=10,missing=10
			9:leaf=170.895
			10:[f275<2.8029] yes=11,no=12,missing=12
				11:leaf=146.999
				12:[f7461<0.89588] yes=13,no=14,missing=13
					13:[f215<2.86179] yes=15,no=16,missing=16
						15:[f24613<2.19722] yes=17,no=18,missing=18
							17:leaf=57.0724
							18:[f5992<0.89588] yes=21,no=22,missing=22
								21:leaf=57.2251
								22:[f37495<3.89182] yes=23,no=24,missing=24
									23:leaf=57.8501
									24:[f6487<1.24245] yes=25,no=26,missing=25
										25:[f51193<2.24991] yes=27,no=28,missing=27
											27:[f2859<0.89588] yes=29,no=30,missing=29
												29:[f36551<-1.01328e-06] yes=31,no=32,missing=31
													31:leaf=122.282
													32:leaf=51.5997
												30:leaf=71.2739
											28:leaf=59.9258
										26:leaf=58.8606
						16:[f114<2.39375] yes=19,no=20,missing=19
							19:leaf=141.89
							20:leaf=41.1317
					14:leaf=76.6258
		6:leaf=78.4615
booster[43]:
0:[f2121<6.51619] yes=1,no=2,missing=2
	1:[f2674<1.24245] yes=3,no=4,missing=3
		3:leaf=165.006
		4:leaf=127.729
	2:[f6733<0.89588] yes=5,no=6,missing=5
		5:[f354<5.99147] yes=7,no=8,missing=8
			7:leaf=166.718
			8:[f275<2.8029] yes=9,no=10,missing=10
				9:leaf=143.348
				10:[f7461<0.89588] yes=11,no=12,missing=11
					11:[f215<2.86179] yes=13,no=14,missing=14
						13:[f11741<2.19722] yes=15,no=16,missing=16
							15:leaf=70.2599
							16:[f5992<0.89588] yes=17,no=18,missing=18
								17:leaf=56.1521
								18:[f37495<3.89182] yes=19,no=20,missing=20
									19:leaf=56.7654
									20:[f6487<1.24245] yes=21,no=22,missing=21
										21:[f51193<4.79579] yes=23,no=24,missing=24
											23:leaf=69.4609
											24:[f18886<-1.01328e-06] yes=25,no=26,missing=25
												25:[f16178<3.21888] yes=27,no=28,missing=28
													27:leaf=65.3416
													28:[f1706<1.24245] yes=29,no=30,missing=29
														29:[f18191<-1.01328e-06] yes=31,no=32,missing=31
															31:[f36551<-1.01328e-06] yes=33,no=34,missing=33
																33:leaf=120.911
																34:leaf=50.7397
															32:leaf=50.6265
														30:leaf=59.3346
												26:leaf=49.3272
										22:leaf=57.7569
						14:leaf=137.628
					12:leaf=74.8014
		6:leaf=76.54
booster[44]:
0:[f2121<0.89588] yes=1,no=2,missing=1
	1:[f6733<0.89588] yes=3,no=4,missing=3
		3:[f354<5.99147] yes=7,no=8,missing=8
			7:leaf=162.643
			8:[f275<2.8029] yes=9,no=10,missing=10
				9:leaf=139.65
				10:[f7461<0.89588] yes=11,no=12,missing=11
					11:[f215<2.86179] yes=13,no=14,missing=14
						13:[f28791<2.19722] yes=15,no=16,missing=16
							15:leaf=54.6963
							16:[f24613<2.19722] yes=19,no=20,missing=20
								19:leaf=54.8759
								20:[f9262<1.24245] yes=21,no=22,missing=21
									21:[f341<1.24245] yes=23,no=24,missing=23
										23:[f6642<0.89588] yes=25,no=26,missing=26
											25:leaf=47.5519
											26:[f8744<3.21888] yes=27,no=28,missing=28
												27:leaf=57.2359
												28:[f11582<4.15889] yes=29,no=30,missing=30
													29:leaf=48.2477
													30:[f8533<0.89588] yes=31,no=32,missing=31
														31:[f30785<-1.01328e-06] yes=33,no=34,missing=33
															33:[f46283<2.19722] yes=35,no=36,missing=36
																35:leaf=50.2589
																36:leaf=120.227
															34:leaf=49.5532
														32:leaf=69.8622
										24:leaf=96.1022
									22:leaf=56.605
						14:[f114<2.39375] yes=17,no=18,missing=17
							17:leaf=135.047
							18:leaf=38.8972
					12:leaf=73.0204
		4:leaf=74.6655
	2:[f2674<1.24245] yes=5,no=6,missing=5
		5:leaf=161.894
		6:leaf=124.987
booster[45]:
0:[f2121<0.89588] yes=1,no=2,missing=1
	1:[f6733<0.89588] yes=3,no=4,missing=3
		3:[f354<5.99147] yes=5,no=6,missing=6
			5:leaf=158.667
			6:[f275<2.8029] yes=7,no=8,missing=8
				7:[f215<5.54518] yes=9,no=10,missing=10
					9:leaf=129.848
					10:leaf=156.861
				8:[f7461<0.89588] yes=11,no=12,missing=11
					11:[f215<2.86179] yes=13,no=14,missing=14
						13:[f1706<1.24245] yes=15,no=16,missing=15
							15:[f28791<2.19722] yes=19,no=20,missing=20
								19:leaf=53.6707
								20:[f7242<2.77259] yes=21,no=22,missing=22
									21:leaf=45.8957
									22:[f6487<1.24245] yes=23,no=24,missing=23
										23:[f51193<4.79579] yes=25,no=26,missing=26
											25:leaf=66.235
											26:[f13147<1.24245] yes=27,no=28,missing=27
												27:[f11582<4.15889] yes=29,no=30,missing=30
													29:leaf=47.4435
													30:[f5412<1.24245] yes=31,no=32,missing=31
														31:leaf=114.562
														32:leaf=48.0652
												28:leaf=62.099
										24:leaf=55.2716
							16:leaf=59.6029
						14:[f114<2.39375] yes=17,no=18,missing=17
							17:leaf=131.715
							18:leaf=38.4109
					12:leaf=71.2818
		4:leaf=72.837
	2:leaf=154.352
booster[46]:
0:[f2121<6.51619] yes=1,no=2,missing=2
	1:[f2674<1.24245] yes=3,no=4,missing=3
		3:[f436<1.24245] yes=7,no=8,missing=7
			7:leaf=153.574
			8:leaf=43.4634
		4:leaf=118.026
	2:[f6733<0.89588] yes=5,no=6,missing=5
		5:[f354<5.99147] yes=9,no=10,missing=10
			9:leaf=154.788
			10:[f275<2.8029] yes=11,no=12,missing=12
				11:[f215<5.54518] yes=13,no=14,missing=14
					13:leaf=126.748
					14:leaf=153.062
				12:[f7461<0.89588] yes=15,no=16,missing=15
					15:[f215<2.86179] yes=17,no=18,missing=18
						17:[f11741<2.19722] yes=19,no=20,missing=20
							19:leaf=65.1882
							20:[f5992<0.89588] yes=21,no=22,missing=22
								21:leaf=52.3445
								22:[f37495<3.89182] yes=23,no=24,missing=24
									23:leaf=52.8013
									24:[f20497<1.3863] yes=25,no=26,missing=26
										25:leaf=59.8701
										26:[f588<1.44519] yes=27,no=28,missing=27
											27:[f51193<4.79579] yes=29,no=30,missing=30
												29:leaf=64.8551
												30:[f4290<0.89588] yes=31,no=32,missing=31
													31:[f31929<2.19722] yes=33,no=34,missing=34
														33:leaf=46.0973
														34:[f1706<1.24245] yes=35,no=36,missing=35
															35:[f52201<-1.01328e-06] yes=37,no=38,missing=37
																37:[f34701<-1.01328e-06] yes=39,no=40,missing=39
																	39:leaf=112.651
																	40:leaf=47.4887
																38:leaf=56.0289
															36:leaf=55.5735
													32:leaf=54.6668
											28:leaf=45.9095
						18:leaf=127.716
					16:leaf=69.5846
		6:leaf=71.0532
booster[47]:
0:[f2121<6.51619] yes=1,no=2,missing=2
	1:[f2674<1.24245] yes=3,no=4,missing=3
		3:[f436<1.24245] yes=7,no=8,missing=7
			7:leaf=149.759
			8:leaf=42.9201
		4:leaf=115.209
	2:[f6733<0.89588] yes=5,no=6,missing=5
		5:[f354<5.99147] yes=9,no=10,missing=10
			9:leaf=151.005
			10:[f275<2.8029] yes=11,no=12,missing=12
				11:[f215<5.54518] yes=13,no=14,missing=14
					13:leaf=123.605
					14:leaf=149.355
				12:[f7461<0.89588] yes=15,no=16,missing=15
					15:[f215<2.86179] yes=17,no=18,missing=18
						17:[f11741<2.19722] yes=19,no=20,missing=20
							19:leaf=63.7913
							20:[f5992<0.89588] yes=23,no=24,missing=24
								23:leaf=51.363
								24:[f37495<3.89182] yes=25,no=26,missing=26
									25:leaf=51.8113
									26:[f6487<1.24245] yes=27,no=28,missing=27
										27:[f13147<1.24245] yes=29,no=30,missing=29
											29:[f341<1.24245] yes=31,no=32,missing=31
												31:[f8744<3.21888] yes=33,no=34,missing=34
													33:leaf=53.52
													34:[f3654<0.89588] yes=35,no=36,missing=36
														35:leaf=45.3345
														36:[f11582<4.15889] yes=37,no=38,missing=38
															37:leaf=45.7698
															38:[f52201<-1.01328e-06] yes=39,no=40,missing=39
																39:leaf=111.41
																40:leaf=54.9783
												32:leaf=89.3276
											30:leaf=58.8939
										28:leaf=52.8602
						18:[f114<2.39375] yes=21,no=22,missing=21
							21:leaf=125.267
							22:leaf=36.3344
					16:leaf=67.9278
		6:leaf=69.3131
booster[48]:
0:[f2121<6.51619] yes=1,no=2,missing=2
	1:[f2674<1.24245] yes=3,no=4,missing=3
		3:[f436<1.24245] yes=7,no=8,missing=7
			7:leaf=146.039
			8:leaf=42.3836
		4:leaf=112.46
	2:[f6733<0.89588] yes=5,no=6,missing=5
		5:[f354<5.99147] yes=9,no=10,missing=10
			9:leaf=147.314
			10:[f275<2.8029] yes=11,no=12,missing=12
				11:[f215<5.54518] yes=13,no=14,missing=14
					13:leaf=120.54
					14:leaf=145.738
				12:[f7461<0.89588] yes=15,no=16,missing=15
					15:[f215<2.86179] yes=17,no=18,missing=18
						17:[f11741<2.19722] yes=19,no=20,missing=20
							19:leaf=62.4243
							20:[f5992<0.89588] yes=21,no=22,missing=22
								21:leaf=50.3999
								22:[f37495<3.89182] yes=23,no=24,missing=24
									23:leaf=50.8398
									24:[f20497<1.3863] yes=25,no=26,missing=26
										25:leaf=57.2862
										26:[f588<1.44519] yes=27,no=28,missing=27
											27:[f51193<4.79579] yes=29,no=30,missing=30
												29:leaf=61.8494
												30:[f13147<1.24245] yes=31,no=32,missing=31
													31:[f31929<2.19722] yes=33,no=34,missing=34
														33:leaf=44.5016
														34:[f1706<1.24245] yes=35,no=36,missing=35
															35:[f10514<0.89588] yes=37,no=38,missing=38
																37:leaf=44.882
																38:leaf=106.846
															36:leaf=52.8555
													32:leaf=57.716
											28:leaf=43.6555
						18:leaf=121.506
					16:leaf=66.3105
		6:leaf=67.6157
booster[49]:
0:[f2121<0.89588] yes=1,no=2,missing=1
	1:[f6733<0.89588] yes=3,no=4,missing=3
		3:[f354<5.99147] yes=7,no=8,missing=8
			7:leaf=143.713
			8:[f275<2.8029] yes=9,no=10,missing=10
				9:[f215<5.54518] yes=11,no=12,missing=12
					11:leaf=117.434
					12:leaf=142.209
				10:[f7461<0.89588] yes=13,no=14,missing=13
					13:[f215<2.86179] yes=15,no=16,missing=16
						15:[f24613<2.19722] yes=17,no=18,missing=18
							17:leaf=48.9527
							18:[f341<1.24245] yes=21,no=22,missing=21
								21:[f5992<2.19722] yes=23,no=24,missing=24
									23:leaf=54.9446
									24:[f37495<3.89182] yes=25,no=26,missing=26
										25:leaf=49.8866
										26:[f6487<1.24245] yes=27,no=28,missing=27
											27:[f15169<5.1299] yes=29,no=30,missing=30
												29:leaf=50.7851
												30:[f13147<1.24245] yes=31,no=32,missing=31
													31:[f14885<2.19722] yes=33,no=34,missing=34
														33:leaf=43.577
														34:[f4276<1.77767] yes=35,no=36,missing=35
															35:[f31929<2.19722] yes=37,no=38,missing=38
																37:leaf=43.7599
																38:[f10514<0.89588] yes=39,no=40,missing=40
																	39:leaf=44.134
																	40:leaf=106.823
															36:leaf=43.7474
													32:leaf=56.5617
											28:leaf=50.1754
								22:leaf=84.2331
						16:[f114<2.39375] yes=19,no=20,missing=19
							19:leaf=119.204
							20:leaf=34.3613
					14:leaf=64.7317
		4:leaf=65.9598
	2:[f2674<1.24245] yes=5,no=6,missing=5
		5:leaf=142.882
		6:leaf=110.105
booster[50]:
0:[f2121<6.51619] yes=1,no=2,missing=2
	1:[f2674<1.24245] yes=3,no=4,missing=3
		3:[f59395<-1.01328e-06] yes=7,no=8,missing=7
			7:leaf=139.187
			8:leaf=58.5295
		4:leaf=107.141
	2:[f6733<0.89588] yes=5,no=6,missing=5
		5:[f354<5.99147] yes=9,no=10,missing=10
			9:leaf=140.2
			10:[f275<2.8029] yes=11,no=12,missing=12
				11:[f215<5.54518] yes=13,no=14,missing=14
					13:leaf=114.638
					14:leaf=138.765
				12:[f7461<0.89588] yes=15,no=16,missing=15
					15:[f215<2.86179] yes=17,no=18,missing=18
						17:[f11741<2.19722] yes=19,no=20,missing=20
							19:leaf=59.511
							20:[f5992<0.89588] yes=23,no=24,missing=24
								23:leaf=48.4247
								24:[f37495<3.89182] yes=25,no=26,missing=26
									25:leaf=48.9512
									26:[f6642<0.89588] yes=27,no=28,missing=28
										27:leaf=49.0475
										28:[f588<1.44519] yes=29,no=30,missing=29
											29:[f51193<2.24991] yes=31,no=32,missing=31
												31:leaf=99.8954
												32:leaf=49.7475
											30:leaf=41.5241
						18:[f114<2.39375] yes=21,no=22,missing=21
							21:leaf=116.242
							22:leaf=33.9318
					16:leaf=63.1905
		6:leaf=64.3444
booster[51]:
0:[f2121<6.51619] yes=1,no=2,missing=2
	1:[f2674<1.24245] yes=3,no=4,missing=3
		3:leaf=135.101
		4:leaf=104.584
	2:[f6733<0.89588] yes=5,no=6,missing=5
		5:[f354<0.89588] yes=7,no=8,missing=7
			7:[f275<2.8029] yes=9,no=10,missing=10
				9:leaf=117.175
				10:[f7461<0.89588] yes=11,no=12,missing=11
					11:[f215<2.86179] yes=13,no=14,missing=14
						13:[f1706<1.24245] yes=15,no=16,missing=15
							15:[f2859<0.89588] yes=17,no=18,missing=17
								17:[f28791<2.19722] yes=19,no=20,missing=20
									19:leaf=47.23
									20:[f20497<1.3863] yes=21,no=22,missing=22
										21:leaf=47.5245
										22:[f9262<1.24245] yes=23,no=24,missing=23
											23:[f7967<-1.01328e-06] yes=25,no=26,missing=25
												25:[f51193<4.79579] yes=27,no=28,missing=28
													27:leaf=57.5363
													28:[f31929<2.19722] yes=29,no=30,missing=30
														29:leaf=41.3657
														30:[f52201<-1.01328e-06] yes=31,no=32,missing=31
															31:[f34701<-1.01328e-06] yes=33,no=34,missing=33
																33:[f19188<0.89588] yes=35,no=36,missing=36
																	35:leaf=41.9706
																	36:leaf=99.5584
																34:leaf=41.5237
															32:leaf=49.2089
												26:leaf=40.6406
											24:leaf=47.8162
								18:leaf=56.1706
							16:leaf=51.2727
						14:leaf=112.757
					12:leaf=61.6859
			8:leaf=137.968
		6:leaf=62.7686
booster[52]:
0:[f2121<0.89588] yes=1,no=2,missing=1
	1:[f6733<0.89588] yes=3,no=4,missing=3
		3:[f354<0.89588] yes=5,no=6,missing=5
			5:[f275<2.8029] yes=7,no=8,missing=8
				7:[f215<0.89588] yes=9,no=10,missing=9
					9:leaf=129.473
					10:leaf=108.206
				8:[f7461<0.89588] yes=11,no=12,missing=11
					11:[f215<0.89588] yes=13,no=14,missing=13
						13:[f6733<1.3863] yes=15,no=16,missing=16
							15:leaf=47.1784
							16:[f700<1.3863] yes=19,no=20,missing=20
								19:leaf=40.347
								20:leaf=110.747
						14:[f4523<0.89588] yes=17,no=18,missing=17
							17:[f1706<1.24245] yes=21,no=22,missing=21
								21:[f5992<2.19722] yes=23,no=24,missing=24
									23:leaf=50.8903
									24:[f2859<0.89588] yes=25,no=26,missing=25
										25:[f20497<1.3863] yes=27,no=28,missing=28
											27:leaf=46.6334
											28:[f37495<3.89182] yes=29,no=30,missing=30
												29:leaf=47.177
												30:[f51193<4.79579] yes=31,no=32,missing=32
													31:leaf=56.3376
													32:[f24613<1.3863] yes=33,no=34,missing=34
														33:leaf=40.4919
														34:leaf=96.4481
										26:leaf=55.0004
								22:leaf=50.2473
							18:leaf=53.7818
					12:leaf=60.2172
			6:leaf=134.6
		4:leaf=61.2315
	2:leaf=129.581
booster[53]:
0:[f2121<0.89588] yes=1,no=2,missing=1
	1:[f6733<0.89588] yes=3,no=4,missing=3
		3:[f354<0.89588] yes=7,no=8,missing=7
			7:[f275<2.8029] yes=9,no=10,missing=10
				9:[f215<0.89588] yes=11,no=12,missing=11
					11:leaf=126.319
					12:leaf=105.523
				10:[f7461<0.89588] yes=13,no=14,missing=13
					13:[f215<0.89588] yes=15,no=16,missing=15
						15:[f6733<1.3863] yes=17,no=18,missing=18
							17:leaf=46.2939
							18:[f700<1.3863] yes=21,no=22,missing=22
								21:leaf=39.6745
								22:leaf=108.007
						16:[f11741<2.19722] yes=19,no=20,missing=20
							19:leaf=55.4256
							20:[f5992<2.19722] yes=23,no=24,missing=24
								23:leaf=49.8725
								24:[f341<1.24245] yes=25,no=26,missing=25
									25:[f6487<1.24245] yes=27,no=28,missing=27
										27:[f4523<0.89588] yes=29,no=30,missing=29
											29:[f37495<3.89182] yes=31,no=32,missing=32
												31:leaf=46.2925
												32:[f3654<0.89588] yes=33,no=34,missing=34
													33:leaf=38.8444
													34:[f51193<4.79579] yes=35,no=36,missing=36
														35:leaf=46.6796
														36:leaf=95.5791
											30:leaf=45.8897
										28:leaf=45.3269
									26:leaf=76.1553
					14:leaf=58.7835
			8:leaf=131.316
		4:leaf=59.7319
	2:[f2674<2.19101] yes=5,no=6,missing=6
		5:leaf=103.391
		6:leaf=130
booster[54]:
0:[f2121<1.24245] yes=1,no=2,missing=1
	1:[f6733<0.89588] yes=3,no=4,missing=3
		3:[f354<0.89588] yes=7,no=8,missing=7
			7:[f7461<0.89588] yes=9,no=10,missing=9
				9:[f436<2.19101] yes=11,no=12,missing=12
					11:[f341<0.89588] yes=13,no=14,missing=13
						13:[f2477<0.89588] yes=17,no=18,missing=17
							17:[f4846<3.21888] yes=23,no=24,missing=24
								23:leaf=43.2943
								24:[f24613<2.19722] yes=29,no=30,missing=30
									29:leaf=43.5254
									30:[f6461<0.89588] yes=33,no=34,missing=34
										33:leaf=48.6869
										34:[f659<1.15129] yes=35,no=36,missing=36
											35:leaf=54.3558
											36:[f19821<-1.01328e-06] yes=37,no=38,missing=37
												37:[f34834<1.3863] yes=39,no=40,missing=40
													39:leaf=38.4689
													40:[f310<1.24245] yes=41,no=42,missing=41
														41:[f8729<1.3863] yes=43,no=44,missing=44
															43:leaf=40.1118
															44:leaf=95.9888
														42:leaf=39.3814
												38:leaf=38.4212
							18:leaf=51.8962
						14:leaf=66.9699
					12:[f215<5.78075] yes=15,no=16,missing=16
						15:[f16178<3.21888] yes=19,no=20,missing=20
							19:leaf=47.5979
							20:[f516<1.49787] yes=25,no=26,missing=25
								25:[f9<4.0199] yes=31,no=32,missing=31
									31:leaf=103.274
									32:leaf=29.9667
								26:leaf=89.7356
						16:[f428<1.49787] yes=21,no=22,missing=21
							21:[f61<2.70582] yes=27,no=28,missing=27
								27:leaf=124.441
								28:leaf=69.0084
							22:leaf=55.3725
				10:leaf=57.3839
			8:leaf=128.111
		4:leaf=58.2691
	2:[f2674<1.24245] yes=5,no=6,missing=5
		5:leaf=127.563
		6:leaf=96.8642
booster[55]:
0:[f2121<6.51619] yes=1,no=2,missing=2
	1:[f3530<1.49787] yes=3,no=4,missing=3
		3:leaf=120.046
		4:leaf=48.1825
	2:[f6733<0.89588] yes=5,no=6,missing=5
		5:[f354<5.99147] yes=7,no=8,missing=8
			7:leaf=123.948
			8:[f275<2.8029] yes=9,no=10,missing=10
				9:[f215<5.54518] yes=11,no=12,missing=12
					11:leaf=100.977
					12:leaf=123.401
				10:[f7461<0.89588] yes=13,no=14,missing=13
					13:[f215<2.86179] yes=15,no=16,missing=16
						15:[f878<1.24245] yes=17,no=18,missing=17
							17:[f6203<1.3863] yes=21,no=22,missing=22
								21:leaf=45.9583
								22:[f9954<0.89588] yes=25,no=26,missing=26
									25:leaf=42.0279
									26:[f1706<1.24245] yes=27,no=28,missing=27
										27:leaf=85.0868
										28:leaf=46.6684
							18:leaf=100.356
						16:[f301<2.67355] yes=19,no=20,missing=19
							19:[f7749<1.24245] yes=23,no=24,missing=23
								23:leaf=105.702
								24:leaf=43.8924
							20:leaf=63.4011
					14:leaf=56.0176
		6:leaf=56.8421
booster[56]:
0:[f2121<1.24245] yes=1,no=2,missing=1
	1:[f6733<0.89588] yes=3,no=4,missing=3
		3:[f354<0.89588] yes=7,no=8,missing=7
			7:[f275<2.8029] yes=11,no=12,missing=12
				11:[f215<0.89588] yes=15,no=16,missing=15
					15:leaf=117.452
					16:leaf=97.8395
				12:[f7461<0.89588] yes=17,no=18,missing=17
					17:[f215<1.24245] yes=21,no=22,missing=21
						21:[f6733<1.3863] yes=23,no=24,missing=24
							23:leaf=43.1469
							24:[f11030<4.15889] yes=27,no=28,missing=28
								27:leaf=36.6246
								28:[f4567<0.89588] yes=31,no=32,missing=31
									31:[f1014<0.89588] yes=35,no=36,missing=35
										35:[f10775<-1.01328e-06] yes=39,no=40,missing=39
											39:leaf=102.08
											40:leaf=55.437
										36:leaf=53.6616
									32:leaf=46.9685
						22:[f4523<0.89588] yes=25,no=26,missing=25
							25:[f1706<1.24245] yes=29,no=30,missing=29
								29:[f2859<0.89588] yes=33,no=34,missing=33
									33:[f20497<1.3863] yes=37,no=38,missing=38
										37:leaf=41.8717
										38:[f11717<1.35402] yes=41,no=42,missing=41
											41:[f6038<1.7006] yes=43,no=44,missing=43
												43:[f5510<2.19722] yes=45,no=46,missing=46
													45:leaf=36.298
													46:leaf=86.08
												44:leaf=42.511
											42:leaf=35.8151
									34:leaf=49.4033
								30:leaf=41.3896
							26:leaf=48.5885
					18:leaf=54.6838
			8:leaf=121.959
		4:leaf=55.45
	2:[f2674<1.24245] yes=5,no=6,missing=5
		5:[f561<1.24245] yes=9,no=10,missing=9
			9:[f878<1.7006] yes=13,no=14,missing=13
				13:[f215<6.51619] yes=19,no=20,missing=20
					19:leaf=134.067
					20:leaf=107.277
				14:leaf=90.8242
			10:leaf=91.967
		6:leaf=91.7852
booster[57]:
0:[f2121<1.24245] yes=1,no=2,missing=1
	1:[f6733<0.89588] yes=3,no=4,missing=3
		3:[f354<0.89588] yes=7,no=8,missing=7
			7:[f275<2.8029] yes=11,no=12,missing=12
				11:[f215<0.89588] yes=15,no=16,missing=15
					15:leaf=114.591
					16:leaf=95.4139
				12:[f7461<0.89588] yes=17,no=18,missing=17
					17:[f215<1.24245] yes=21,no=22,missing=21
						21:[f6733<1.3863] yes=23,no=24,missing=24
							23:leaf=42.3379
							24:[f11030<4.15889] yes=27,no=28,missing=28
								27:leaf=36.0142
								28:[f4567<0.89588] yes=31,no=32,missing=31
									31:[f1014<0.89588] yes=35,no=36,missing=35
										35:[f10775<-1.01328e-06] yes=39,no=40,missing=39
											39:leaf=99.5495
											40:leaf=54.3282
										36:leaf=52.5884
									32:leaf=46.0879
						22:[f4523<0.89588] yes=25,no=26,missing=25
							25:[f341<1.24245] yes=29,no=30,missing=29
								29:[f10973<1.24245] yes=33,no=34,missing=34
									33:leaf=48.554
									34:[f24613<2.19722] yes=37,no=38,missing=38
										37:leaf=40.5576
										38:[f13580<2.19722] yes=41,no=42,missing=42
											41:leaf=41.6941
											42:[f14885<2.19722] yes=43,no=44,missing=44
												43:leaf=35.1572
												44:[f51193<4.79579] yes=45,no=46,missing=46
													45:leaf=42.2589
													46:[f3230<0.89588] yes=47,no=48,missing=48
														47:leaf=42.7436
														48:[f20410<-1.01328e-06] yes=49,no=50,missing=49
															49:leaf=86.7542
															50:leaf=36.1216
								30:leaf=68.3288
							26:leaf=47.5763
					18:leaf=53.3818
			8:leaf=118.983
		4:leaf=54.0921
	2:[f2674<1.24245] yes=5,no=6,missing=5
		5:[f561<1.24245] yes=9,no=10,missing=9
			9:[f878<1.7006] yes=13,no=14,missing=13
				13:[f215<6.51619] yes=19,no=20,missing=20
					19:leaf=130.758
					20:leaf=104.678
				14:leaf=88.7282
			10:leaf=89.8031
		6:leaf=89.5998
booster[58]:
0:[f2121<1.24245] yes=1,no=2,missing=1
	1:[f6733<0.89588] yes=3,no=4,missing=3
		3:[f354<0.89588] yes=7,no=8,missing=7
			7:[f7461<0.89588] yes=11,no=12,missing=11
				11:[f436<2.19101] yes=13,no=14,missing=14
					13:[f341<0.89588] yes=15,no=16,missing=15
						15:[f2477<0.89588] yes=19,no=20,missing=19
							19:[f6461<0.89588] yes=25,no=26,missing=26
								25:leaf=43.5035
								26:[f4846<3.21888] yes=31,no=32,missing=32
									31:leaf=38.9691
									32:[f24613<2.19722] yes=37,no=38,missing=38
										37:leaf=39.7972
										38:[f659<1.15129] yes=39,no=40,missing=40
											39:leaf=49.0402
											40:[f5170<-1.01328e-06] yes=41,no=42,missing=41
												41:[f34834<1.3863] yes=43,no=44,missing=44
													43:leaf=34.6861
													44:[f17913<1.03972] yes=45,no=46,missing=46
														45:leaf=35.8083
														46:[f8729<1.3863] yes=47,no=48,missing=48
															47:leaf=35.8094
															48:[f500<0.89588] yes=49,no=50,missing=49
																49:[f16485<2.19722] yes=51,no=52,missing=52
																	51:leaf=37.5158
																	52:leaf=89.7486
																50:leaf=65.3281
												42:leaf=34.4594
							20:leaf=46.5047
						16:leaf=60.1103
					14:[f215<5.78075] yes=17,no=18,missing=18
						17:[f16178<3.21888] yes=21,no=22,missing=22
							21:leaf=43.4599
							22:[f516<1.49787] yes=27,no=28,missing=27
								27:[f15332<-1.01328e-06] yes=33,no=34,missing=33
									33:leaf=93.6473
									34:leaf=38.8933
								28:leaf=81.136
						18:[f428<1.49787] yes=23,no=24,missing=23
							23:[f61<2.70582] yes=29,no=30,missing=29
								29:[f778<2.19722] yes=35,no=36,missing=36
									35:leaf=48.0957
									36:leaf=114.613
								30:leaf=62.0552
							24:leaf=49.3799
				12:leaf=52.1108
			8:leaf=116.079
		4:leaf=52.7674
	2:[f2674<1.24245] yes=5,no=6,missing=5
		5:[f561<1.24245] yes=9,no=10,missing=9
			9:leaf=118.536
			10:leaf=87.6901
		6:leaf=87.4665
booster[59]:
0:[f2121<1.24245] yes=1,no=2,missing=1
	1:[f6733<0.89588] yes=3,no=4,missing=3
		3:[f354<5.99147] yes=7,no=8,missing=8
			7:leaf=112.302
			8:[f275<2.8029] yes=11,no=12,missing=12
				11:[f215<5.54518] yes=15,no=16,missing=16
					15:leaf=91.2046
					16:leaf=112.057
				12:[f7461<0.89588] yes=17,no=18,missing=17
					17:[f215<1.24245] yes=21,no=22,missing=21
						21:[f6733<1.3863] yes=25,no=26,missing=26
							25:leaf=40.6922
							26:[f11030<4.15889] yes=29,no=30,missing=30
								29:leaf=34.8027
								30:[f4567<0.89588] yes=33,no=34,missing=33
									33:[f1014<0.89588] yes=37,no=38,missing=37
										37:[f934<1.24245] yes=39,no=40,missing=40
											39:leaf=38.8897
											40:leaf=94.0136
										38:leaf=50.196
									34:leaf=44.1673
						22:[f878<1.24245] yes=27,no=28,missing=27
							27:[f2718<0.89588] yes=31,no=32,missing=31
								31:[f11484<2.19722] yes=35,no=36,missing=36
									35:leaf=41.9038
									36:leaf=76.1391
								32:leaf=48.4864
							28:leaf=90.0845
					18:leaf=50.8701
		4:leaf=51.4751
	2:[f2674<1.24245] yes=5,no=6,missing=5
		5:[f878<1.7006] yes=9,no=10,missing=9
			9:[f9635<0.89588] yes=13,no=14,missing=14
				13:leaf=47.0158
				14:[f971<0.89588] yes=19,no=20,missing=19
					19:[f2921<3.21888] yes=23,no=24,missing=24
						23:leaf=50.0101
						24:leaf=119.145
					20:leaf=79.6424
			10:leaf=83.2939
		6:leaf=85.3839
booster[60]:
0:[f2121<1.24245] yes=1,no=2,missing=1
	1:[f6733<0.89588] yes=3,no=4,missing=3
		3:[f354<0.89588] yes=7,no=8,missing=7
			7:[f7461<0.89588] yes=11,no=12,missing=11
				11:[f436<2.19101] yes=15,no=16,missing=16
					15:[f341<0.89588] yes=19,no=20,missing=19
						19:[f2477<0.89588] yes=25,no=26,missing=25
							25:[f4847<1.35402] yes=31,no=32,missing=32
								31:leaf=52.4245
								32:[f6461<0.89588] yes=37,no=38,missing=38
									37:leaf=37.7162
									38:[f7998<2.19722] yes=43,no=44,missing=44
										43:leaf=32.1212
										44:[f659<1.15129] yes=45,no=46,missing=46
											45:leaf=46.5404
											46:[f5170<-1.01328e-06] yes=47,no=48,missing=47
												47:[f2266<1.24245] yes=49,no=50,missing=49
													49:[f41649<2.19722] yes=51,no=52,missing=52
														51:leaf=40.337
														52:[f6819<0.89588] yes=53,no=54,missing=53
															53:leaf=83.4495
															54:leaf=33.8601
													50:leaf=33.2706
												48:leaf=32.9606
							26:leaf=43.9496
						20:leaf=56.9299
					16:[f215<2.86179] yes=21,no=22,missing=22
						21:[f7985<0.89588] yes=27,no=28,missing=27
							27:[f86111<-1.01328e-06] yes=33,no=34,missing=33
								33:[f516<1.49787] yes=39,no=40,missing=39
									39:leaf=88.7729
									40:leaf=77.6733
								34:leaf=34.9092
							28:leaf=41.6032
						22:[f428<1.49787] yes=29,no=30,missing=29
							29:[f61<2.70582] yes=35,no=36,missing=35
								35:[f778<2.19722] yes=41,no=42,missing=42
									41:leaf=45.7272
									42:leaf=109.01
								36:leaf=58.7286
							30:leaf=46.9102
				12:leaf=49.6589
			8:leaf=110.506
		4:leaf=50.2145
	2:[f2674<1.24245] yes=5,no=6,missing=5
		5:[f878<1.7006] yes=9,no=10,missing=9
			9:[f9635<0.89588] yes=13,no=14,missing=14
				13:leaf=46.2322
				14:[f971<0.89588] yes=17,no=18,missing=17
					17:[f7333<1.6661] yes=23,no=24,missing=23
						23:leaf=116.203
						24:leaf=48.8257
					18:leaf=77.8504
			10:leaf=81.3504
		6:leaf=83.351
booster[61]:
0:[f2121<1.24245] yes=1,no=2,missing=1
	1:[f6733<0.89588] yes=3,no=4,missing=3
		3:[f354<5.99147] yes=7,no=8,missing=8
			7:leaf=106.915
			8:[f275<1.24245] yes=11,no=12,missing=11
				11:[f7461<0.89588] yes=15,no=16,missing=15
					15:[f215<1.24245] yes=21,no=22,missing=21
						21:[f21231<3.89182] yes=25,no=26,missing=26
							25:leaf=44.1397
							26:[f16880<1.24245] yes=29,no=30,missing=30
								29:leaf=51.9289
								30:[f934<0.89588] yes=33,no=34,missing=34
									33:leaf=40.6944
									34:[f3524<-1.01328e-06] yes=35,no=36,missing=35
										35:[f4567<0.89588] yes=37,no=38,missing=37
											37:[f1014<0.89588] yes=39,no=40,missing=39
												39:leaf=90.3612
												40:leaf=36.7898
											38:leaf=35.9084
										36:leaf=46.8379
						22:[f878<1.24245] yes=27,no=28,missing=27
							27:[f2718<0.89588] yes=31,no=32,missing=31
								31:leaf=71.9971
								32:leaf=46.1441
							28:leaf=85.9336
					16:leaf=48.4766
				12:[f215<1.03972] yes=17,no=18,missing=17
					17:leaf=108.809
					18:[f4732<-1.01328e-06] yes=23,no=24,missing=23
						23:leaf=87.0306
						24:leaf=35.9488
		4:leaf=48.9847
	2:[f2674<1.24245] yes=5,no=6,missing=5
		5:[f878<1.7006] yes=9,no=10,missing=9
			9:[f9635<0.89588] yes=13,no=14,missing=14
				13:leaf=45.4617
				14:[f971<0.89588] yes=19,no=20,missing=19
					19:leaf=112.587
					20:leaf=76.0988
			10:leaf=79.4522
		6:leaf=81.3665
booster[62]:
0:[f2121<1.24245] yes=1,no=2,missing=1
	1:[f6733<0.89588] yes=3,no=4,missing=3
		3:[f354<0.89588] yes=7,no=8,missing=7
			7:[f275<1.24245] yes=11,no=12,missing=11
				11:[f7461<0.89588] yes=15,no=16,missing=15
					15:[f215<1.24245] yes=19,no=20,missing=19
						19:[f6733<1.3863] yes=25,no=26,missing=26
							25:leaf=38.3233
							26:[f11030<4.15889] yes=29,no=30,missing=30
								29:leaf=32.8719
								30:[f4567<0.89588] yes=35,no=36,missing=35
									35:[f5071<0.89588] yes=39,no=40,missing=40
										39:leaf=35.2852
										40:[f16880<1.24245] yes=43,no=44,missing=44
											43:leaf=50.8095
											44:[f934<0.89588] yes=47,no=48,missing=48
												47:leaf=36.1281
												48:leaf=87.5411
									36:leaf=41.3302
						20:[f878<1.24245] yes=27,no=28,missing=27
							27:[f9954<2.19722] yes=31,no=32,missing=32
								31:leaf=40.9981
								32:[f6203<1.3863] yes=37,no=38,missing=38
									37:leaf=38.3321
									38:[f1706<1.24245] yes=41,no=42,missing=41
										41:[f659<1.35402] yes=45,no=46,missing=46
											45:leaf=48.4026
											46:[f4290<0.89588] yes=49,no=50,missing=49
												49:[f6487<1.24245] yes=51,no=52,missing=51
													51:[f12713<-1.01328e-06] yes=53,no=54,missing=53
														53:leaf=72.9007
														54:leaf=35.8575
													52:leaf=35.4562
												50:leaf=35.1481
										42:leaf=35.1381
							28:[f4602<1.3863] yes=33,no=34,missing=34
								33:leaf=35.7161
								34:leaf=85.8037
					16:leaf=47.3224
				12:[f215<1.03972] yes=17,no=18,missing=17
					17:[f4364<3.58352] yes=21,no=22,missing=22
						21:leaf=58.2956
						22:leaf=109.234
					18:[f9373<0.89588] yes=23,no=24,missing=23
						23:leaf=84.8841
						24:leaf=34.9803
			8:leaf=105.2
		4:leaf=47.7851
	2:[f2674<1.24245] yes=5,no=6,missing=5
		5:[f878<1.7006] yes=9,no=10,missing=9
			9:[f9635<0.89588] yes=13,no=14,missing=14
				13:leaf=44.704
				14:leaf=107.778
			10:leaf=77.5983
		6:leaf=79.4292
booster[63]:
0:[f2121<1.24245] yes=1,no=2,missing=1
	1:[f6733<0.89588] yes=3,no=4,missing=3
		3:[f354<5.99147] yes=7,no=8,missing=8
			7:leaf=101.776
			8:[f275<1.24245] yes=13,no=14,missing=13
				13:[f7461<0.89588] yes=17,no=18,missing=17
					17:[f215<1.24245] yes=23,no=24,missing=23
						23:[f21231<3.89182] yes=29,no=30,missing=30
							29:leaf=42.2293
							30:[f19821<-1.01328e-06] yes=33,no=34,missing=33
								33:[f934<0.89588] yes=37,no=38,missing=38
									37:leaf=39.2743
									38:[f310<1.3863] yes=41,no=42,missing=42
										41:leaf=48.9977
										42:[f31919<4.39445] yes=45,no=46,missing=46
											45:leaf=41.3
											46:[f25876<2.19722] yes=49,no=50,missing=50
												49:leaf=34.9916
												50:leaf=85.5456
								34:leaf=32.1168
						24:[f341<1.24245] yes=31,no=32,missing=31
							31:[f219<0.89588] yes=35,no=36,missing=36
								35:leaf=44.8265
								36:[f10973<1.24245] yes=39,no=40,missing=40
									39:leaf=41.3584
									40:[f4523<0.89588] yes=43,no=44,missing=43
										43:[f15602<1.24245] yes=47,no=48,missing=48
											47:leaf=39.1978
											48:[f13580<2.19722] yes=51,no=52,missing=52
												51:leaf=35.4529
												52:[f1137<1.86883] yes=53,no=54,missing=53
													53:[f4605<-1.01328e-06] yes=55,no=56,missing=55
														55:[f1616<0.89588] yes=57,no=58,missing=57
															57:[f20497<1.3863] yes=59,no=60,missing=60
																59:leaf=31.1929
																60:[f24613<2.19722] yes=61,no=62,missing=62
																	61:leaf=31.6594
																	62:leaf=76.9826
															58:leaf=30.695
														56:leaf=30.5735
													54:leaf=54.0334
										44:leaf=34.9266
							32:leaf=58.0945
					18:leaf=46.1956
				14:[f215<1.03972] yes=19,no=20,missing=19
					19:[f564<0.89588] yes=25,no=26,missing=26
						25:leaf=65.5607
						26:leaf=109.916
					20:[f4732<-1.01328e-06] yes=27,no=28,missing=27
						27:leaf=82.7822
						28:leaf=34.3508
		4:[f1285<2.19722] yes=9,no=10,missing=10
			9:leaf=19.7056
			10:leaf=47.3407
	2:[f2674<1.24245] yes=5,no=6,missing=5
		5:[f561<1.24245] yes=11,no=12,missing=11
			11:[f55214<-1.01328e-06] yes=15,no=16,missing=15
				15:[f15274<3.58352] yes=21,no=22,missing=22
					21:leaf=44.2216
					22:leaf=106.071
				16:leaf=43.5026
			12:leaf=77.2397
		6:leaf=77.538
booster[64]:
0:[f2121<6.51619] yes=1,no=2,missing=2
	1:[f25608<-1.01328e-06] yes=3,no=4,missing=3
		3:[f2674<2.19101] yes=7,no=8,missing=8
			7:leaf=78.1859
			8:[f3717<0.89588] yes=13,no=14,missing=14
				13:leaf=40.3879
				14:[f6027<1.3863] yes=19,no=20,missing=20
					19:leaf=54.3873
					20:[f206<3.23695] yes=25,no=26,missing=26
						25:[f289<0.89588] yes=33,no=34,missing=33
							33:[f22005<-1.01328e-06] yes=39,no=40,missing=39
								39:leaf=102.78
								40:leaf=42.707
							34:leaf=42.165
						26:leaf=54.5672
		4:leaf=50.3428
	2:[f6733<0.89588] yes=5,no=6,missing=5
		5:[f354<0.89588] yes=9,no=10,missing=9
			9:[f275<1.24245] yes=15,no=16,missing=15
				15:[f7461<0.89588] yes=21,no=22,missing=21
					21:[f215<0.89588] yes=27,no=28,missing=27
						27:[f3576<1.24245] yes=35,no=36,missing=36
							35:leaf=56.2672
							36:[f301<2.85851] yes=41,no=42,missing=41
								41:[f16880<1.24245] yes=45,no=46,missing=46
									45:leaf=44.8797
									46:leaf=86.2112
								42:leaf=48.805
						28:[f878<1.24245] yes=37,no=38,missing=37
							37:[f2718<0.89588] yes=43,no=44,missing=43
								43:[f11484<2.19722] yes=47,no=48,missing=48
									47:leaf=36.6363
									48:[f5992<2.19722] yes=49,no=50,missing=50
										49:leaf=37.0702
										50:[f4290<0.89588] yes=51,no=52,missing=51
											51:[f1582<1.3863] yes=53,no=54,missing=54
												53:leaf=43.9184
												54:[f10704<1.3863] yes=55,no=56,missing=56
													55:leaf=47.8299
													56:[f1706<1.24245] yes=57,no=58,missing=57
														57:[f20497<1.3863] yes=59,no=60,missing=60
															59:leaf=37.8689
															60:[f12082<4.39445] yes=61,no=62,missing=62
																61:leaf=34.9253
																62:leaf=71.0426
														58:leaf=37.4411
											52:leaf=33.6861
								44:leaf=42.4178
							38:leaf=81.4609
					22:leaf=45.0957
				16:[f215<1.03972] yes=23,no=24,missing=23
					23:[f4364<3.58352] yes=29,no=30,missing=30
						29:leaf=55.6374
						30:leaf=104.059
					24:[f3395<1.3863] yes=31,no=32,missing=32
						31:leaf=39.7799
						32:leaf=81.0767
			10:leaf=100.148
		6:[f4291<0.89588] yes=11,no=12,missing=11
			11:[f2004<1.3863] yes=17,no=18,missing=18
				17:leaf=19.4802
				18:leaf=46.9377
			12:leaf=19.3552
booster[65]:
0:[f2121<6.51619] yes=1,no=2,missing=2
	1:[f3530<1.49787] yes=3,no=4,missing=3
		3:[f9451<-1.01328e-06] yes=7,no=8,missing=7
			7:[f2869<1.35402] yes=11,no=12,missing=12
				11:leaf=50.3946
				12:[f2503<4.15889] yes=17,no=18,missing=18
					17:leaf=54.5746
					18:[f15094<0.89588] yes=23,no=24,missing=24
						23:leaf=38.6152
						24:[f12982<1.3863] yes=33,no=34,missing=34
							33:leaf=40.3183
							34:[f6027<0.89588] yes=39,no=40,missing=40
								39:leaf=53.2996
								40:[f3572<1.3863] yes=45,no=46,missing=46
									45:leaf=53.4196
									46:[f206<3.23695] yes=51,no=52,missing=52
										51:leaf=99.1949
										52:leaf=53.4759
			8:leaf=37.2808
		4:leaf=36.0013
	2:[f6733<0.89588] yes=5,no=6,missing=5
		5:[f354<5.99147] yes=9,no=10,missing=10
			9:[f8<4.39445] yes=13,no=14,missing=14
				13:leaf=97.8192
				14:leaf=28.1516
			10:[f275<1.24245] yes=15,no=16,missing=15
				15:[f7461<0.89588] yes=19,no=20,missing=19
					19:[f215<4.96981] yes=25,no=26,missing=26
						25:[f341<1.24245] yes=35,no=36,missing=35
							35:[f5992<2.19722] yes=41,no=42,missing=42
								41:leaf=36.3288
								42:[f23097<0.89588] yes=47,no=48,missing=48
									47:leaf=36.5877
									48:[f9262<1.24245] yes=53,no=54,missing=53
										53:[f51193<4.79579] yes=55,no=56,missing=56
											55:leaf=33.4949
											56:[f24613<2.19722] yes=57,no=58,missing=58
												57:leaf=33.6457
												58:[f27770<2.19722] yes=59,no=60,missing=60
													59:leaf=37.7887
													60:[f8539<2.19722] yes=61,no=62,missing=62
														61:leaf=34.597
														62:[f37495<3.89182] yes=63,no=64,missing=64
															63:leaf=29.2072
															64:[f372<2.19722] yes=65,no=66,missing=66
																65:leaf=38.906
																66:[f1646<4.60517] yes=67,no=68,missing=68
																	67:leaf=62.26
																	68:[f2925<0.89588] yes=69,no=70,missing=69
																		69:[f12552<0.89588] yes=71,no=72,missing=72
																			71:leaf=31.5503
																			72:leaf=74.949
																		70:leaf=29.1565
										54:leaf=32.8475
							36:leaf=55.2308
						26:[f301<2.67355] yes=37,no=38,missing=37
							37:[f3576<1.24245] yes=43,no=44,missing=44
								43:leaf=48.5331
								44:[f194<4.06899] yes=49,no=50,missing=49
									49:leaf=85.7835
									50:leaf=46.7815
							38:leaf=48.5132
					20:[f860<1.24245] yes=27,no=28,missing=28
						27:leaf=59.1865
						28:leaf=36.9724
				16:[f215<1.03972] yes=21,no=22,missing=21
					21:[f467<2.19722] yes=29,no=30,missing=30
						29:leaf=64.9749
						30:leaf=105.656
					22:[f9373<0.89588] yes=31,no=32,missing=31
						31:leaf=78.8771
						32:leaf=32.7582
		6:leaf=44.3904
booster[66]:
0:[f2121<6.51619] yes=1,no=2,missing=2
	1:[f3530<1.49787] yes=3,no=4,missing=3
		3:[f9451<-1.01328e-06] yes=7,no=8,missing=7
			7:[f2869<1.35402] yes=13,no=14,missing=14
				13:leaf=49.3868
				14:[f2503<4.15889] yes=21,no=22,missing=22
					21:leaf=53.4377
					22:[f15094<0.89588] yes=27,no=28,missing=28
						27:leaf=37.9716
						28:[f16840<1.3863] yes=37,no=38,missing=38
							37:leaf=39.2401
							38:[f9441<0.89588] yes=43,no=44,missing=44
								43:leaf=39.5485
								44:[f29934<-1.01328e-06] yes=51,no=52,missing=51
									51:[f6027<0.89588] yes=55,no=56,missing=56
										55:leaf=52.2336
										56:[f11580<-1.01328e-06] yes=59,no=60,missing=59
											59:leaf=96.55
											60:leaf=40.5077
									52:leaf=39.6019
			8:leaf=36.6594
		4:leaf=35.4013
	2:[f6733<0.89588] yes=5,no=6,missing=5
		5:[f354<5.99147] yes=9,no=10,missing=10
			9:[f8<4.39445] yes=15,no=16,missing=16
				15:leaf=95.4293
				16:leaf=27.7997
			10:[f275<1.24245] yes=17,no=18,missing=17
				17:[f7461<0.89588] yes=23,no=24,missing=23
					23:[f215<4.96981] yes=29,no=30,missing=30
						29:[f878<1.24245] yes=39,no=40,missing=39
							39:[f2718<0.89588] yes=45,no=46,missing=45
								45:[f1093<1.49787] yes=53,no=54,missing=53
									53:[f3654<1.03972] yes=57,no=58,missing=58
										57:leaf=35.5912
										58:[f5992<2.19722] yes=61,no=62,missing=62
											61:leaf=35.6023
											62:[f12713<-1.01328e-06] yes=63,no=64,missing=63
												63:[f23097<0.89588] yes=65,no=66,missing=66
													65:leaf=38.4617
													66:[f37495<3.89182] yes=67,no=68,missing=68
														67:leaf=32.5202
														68:[f6642<0.89588] yes=69,no=70,missing=70
															69:leaf=32.6586
															70:[f12737<-1.01328e-06] yes=71,no=72,missing=71
																71:[f17643<1.49787] yes=73,no=74,missing=74
																	73:leaf=36.5647
																	74:[f12082<4.39445] yes=75,no=76,missing=76
																		75:leaf=33.3227
																		76:[f14939<3.58352] yes=77,no=78,missing=78
																			77:leaf=33.672
																			78:leaf=68.3704
																72:leaf=32.86
												64:leaf=32.2113
									54:leaf=39.1985
								46:leaf=40.2833
							40:[f359<0.89588] yes=47,no=48,missing=48
								47:leaf=38.8257
								48:leaf=80.3246
						30:[f301<2.67355] yes=41,no=42,missing=41
							41:[f3576<1.24245] yes=49,no=50,missing=50
								49:leaf=47.4931
								50:leaf=82.0515
							42:leaf=47.4736
					24:[f860<1.24245] yes=31,no=32,missing=32
						31:leaf=58.0028
						32:leaf=36.1024
				18:[f215<1.03972] yes=25,no=26,missing=25
					25:[f564<0.89588] yes=33,no=34,missing=34
						33:leaf=60.7619
						34:leaf=102.35
					26:[f4732<-1.01328e-06] yes=35,no=36,missing=35
						35:leaf=76.933
						36:leaf=31.8409
		6:[f4291<0.89588] yes=11,no=12,missing=11
			11:[f2004<1.3863] yes=19,no=20,missing=20
				19:leaf=18.4157
				20:leaf=44.7052
			12:leaf=18.2928
booster[67]:
0:[f2121<6.51619] yes=1,no=2,missing=2
	1:[f25608<-1.01328e-06] yes=3,no=4,missing=3
		3:[f2674<2.19101] yes=7,no=8,missing=8
			7:leaf=72.5844
			8:[f8429<2.77259] yes=13,no=14,missing=14
				13:leaf=49.9795
				14:[f206<3.23695] yes=19,no=20,missing=20
					19:[f9441<0.89588] yes=25,no=26,missing=26
						25:leaf=38.8893
						26:[f1234<1.24245] yes=35,no=36,missing=35
							35:[f13021<1.3863] yes=41,no=42,missing=42
								41:leaf=46.5375
								42:[f12275<2.19722] yes=49,no=50,missing=50
									49:leaf=55.8391
									50:[f6027<1.3863] yes=53,no=54,missing=54
										53:leaf=48.0137
										54:leaf=97.6127
							36:leaf=38.9897
					20:leaf=50.7601
		4:leaf=47.0605
	2:[f6733<0.89588] yes=5,no=6,missing=5
		5:[f354<5.99147] yes=9,no=10,missing=10
			9:leaf=92.2491
			10:[f275<1.24245] yes=15,no=16,missing=15
				15:[f7461<0.89588] yes=21,no=22,missing=21
					21:[f215<4.96981] yes=27,no=28,missing=28
						27:[f878<1.24245] yes=37,no=38,missing=37
							37:[f2718<0.89588] yes=43,no=44,missing=43
								43:[f1093<1.49787] yes=51,no=52,missing=51
									51:[f1706<1.24245] yes=55,no=56,missing=55
										55:[f2290<0.89588] yes=57,no=58,missing=58
											57:leaf=47.315
											58:[f4290<0.89588] yes=59,no=60,missing=59
												59:[f37495<3.89182] yes=61,no=62,missing=62
													61:leaf=31.9104
													62:[f51193<4.79579] yes=63,no=64,missing=64
														63:leaf=35.5413
														64:[f426<6.86797] yes=65,no=66,missing=66
															65:leaf=48.0766
															66:[f30688<3.21888] yes=67,no=68,missing=68
																67:leaf=40.6937
																68:[f466<2.79921] yes=69,no=70,missing=69
																	69:[f16178<3.21888] yes=71,no=72,missing=72
																		71:leaf=36.6172
																		72:[f8495<1.3863] yes=73,no=74,missing=74
																			73:leaf=41.4796
																			74:[f3413<2.19722] yes=75,no=76,missing=76
																				75:leaf=33.582
																				76:leaf=68.6426
																	70:leaf=27.2377
												60:leaf=31.6667
										56:leaf=34.8001
									52:leaf=38.3585
								44:leaf=39.4021
							38:[f359<0.89588] yes=45,no=46,missing=46
								45:leaf=38.0977
								46:leaf=78.3835
						28:[f4364<3.58352] yes=39,no=40,missing=40
							39:leaf=49.9777
							40:[f6745<1.3863] yes=47,no=48,missing=48
								47:leaf=37.9845
								48:leaf=79.5583
					22:[f860<1.24245] yes=29,no=30,missing=30
						29:leaf=56.8427
						30:leaf=35.253
				16:[f215<1.03972] yes=23,no=24,missing=23
					23:[f467<2.19722] yes=31,no=32,missing=32
						31:leaf=61.8345
						32:leaf=100.747
					24:[f3395<1.3863] yes=33,no=34,missing=34
						33:leaf=36.9709
						34:leaf=75.2186
		6:[f983<3.58352] yes=11,no=12,missing=12
			11:[f377<1.49787] yes=17,no=18,missing=17
				17:leaf=49.385
				18:leaf=32.9832
			12:leaf=32.6745
booster[68]:
0:[f2121<6.51619] yes=1,no=2,missing=2
	1:[f3530<1.49787] yes=3,no=4,missing=3
		3:[f9451<-1.01328e-06] yes=7,no=8,missing=7
			7:[f2869<1.35402] yes=13,no=14,missing=14
				13:leaf=47.1906
				14:[f2503<4.15889] yes=21,no=22,missing=22
					21:leaf=51.1671
					22:[f15094<0.89588] yes=29,no=30,missing=30
						29:leaf=36.129
						30:[f16840<1.3863] yes=39,no=40,missing=40
							39:leaf=37.5934
							40:[f206<3.23695] yes=45,no=46,missing=46
								45:[f4236<0.89588] yes=51,no=52,missing=51
									51:[f9441<0.89588] yes=57,no=58,missing=58
										57:leaf=38.2412
										58:[f6027<0.89588] yes=63,no=64,missing=64
											63:leaf=45.9011
											64:[f2857<1.3863] yes=69,no=70,missing=70
												69:leaf=54.5329
												70:[f25240<3.58352] yes=73,no=74,missing=74
													73:leaf=39.4693
													74:leaf=93.9812
									52:leaf=53.369
								46:leaf=49.7449
			8:leaf=34.8387
		4:leaf=33.8142
	2:[f6733<0.89588] yes=5,no=6,missing=5
		5:[f354<5.99147] yes=9,no=10,missing=10
			9:[f8<4.39445] yes=15,no=16,missing=16
				15:leaf=90.844
				16:leaf=26.299
			10:[f275<1.24245] yes=17,no=18,missing=17
				17:[f7461<0.89588] yes=23,no=24,missing=23
					23:[f215<4.96981] yes=31,no=32,missing=32
						31:[f341<1.24245] yes=41,no=42,missing=41
							41:[f5992<2.19722] yes=47,no=48,missing=48
								47:leaf=33.7637
								48:[f8533<0.89588] yes=53,no=54,missing=53
									53:[f10973<4.39445] yes=59,no=60,missing=60
										59:leaf=38.8245
										60:[f1137<1.86883] yes=65,no=66,missing=65
											65:[f51193<4.79579] yes=71,no=72,missing=72
												71:leaf=31.3624
												72:[f11741<2.19722] yes=75,no=76,missing=76
													75:leaf=37.8862
													76:[f12552<0.89588] yes=77,no=78,missing=78
														77:leaf=39.5606
														78:[f793<0.89588] yes=79,no=80,missing=79
															79:[f4276<1.6661] yes=81,no=82,missing=81
																81:[f26495<1.3863] yes=83,no=84,missing=84
																	83:leaf=27.236
																	84:[f193<3.71238] yes=85,no=86,missing=85
																		85:[f10482<1.3863] yes=87,no=88,missing=88
																			87:leaf=28.3958
																			88:[f24613<2.19722] yes=89,no=90,missing=90
																				89:leaf=28.6315
																				90:leaf=69.8397
																		86:leaf=39.8183
																82:leaf=27.0901
															80:leaf=46.1084
											66:leaf=46.992
									54:leaf=36.7224
							42:leaf=51.1423
						32:[f3576<1.24245] yes=43,no=44,missing=44
							43:leaf=45.0247
							44:[f301<2.67355] yes=49,no=50,missing=49
								49:[f194<4.06899] yes=55,no=56,missing=55
									55:[f2294<0.89588] yes=61,no=62,missing=61
										61:[f2976<2.77259] yes=67,no=68,missing=68
											67:leaf=40.9183
											68:leaf=82.5791
										62:leaf=40.0445
									56:leaf=42.7616
								50:leaf=45.1113
					24:[f860<1.24245] yes=33,no=34,missing=34
						33:leaf=55.7059
						34:leaf=34.4235
				18:[f215<1.03972] yes=25,no=26,missing=25
					25:[f564<0.89588] yes=35,no=36,missing=36
						35:leaf=57.8569
						36:leaf=97.5799
					26:[f4732<-1.01328e-06] yes=37,no=38,missing=37
						37:leaf=73.1807
						38:leaf=30.3753
		6:[f983<3.58352] yes=11,no=12,missing=12
			11:[f377<1.49787] yes=19,no=20,missing=19
				19:[f4544<2.19722] yes=27,no=28,missing=28
					27:leaf=20.4596
					28:leaf=49.7939
				20:leaf=32.2336
			12:leaf=31.9087
booster[69]:
0:[f2121<6.51619] yes=1,no=2,missing=2
	1:[f3530<1.49787] yes=3,no=4,missing=3
		3:[f9451<-1.01328e-06] yes=7,no=8,missing=7
			7:[f2869<1.35402] yes=13,no=14,missing=14
				13:leaf=46.2468
				14:[f2503<4.15889] yes=17,no=18,missing=18
					17:leaf=50.1011
					18:[f15094<0.89588] yes=23,no=24,missing=24
						23:leaf=35.5268
						24:[f3572<1.3863] yes=33,no=34,missing=34
							33:leaf=48.2645
							34:[f206<3.23695] yes=39,no=40,missing=40
								39:[f4236<0.89588] yes=47,no=48,missing=47
									47:[f9809<1.3863] yes=53,no=54,missing=54
										53:leaf=44.5518
										54:[f12982<1.3863] yes=59,no=60,missing=60
											59:leaf=37.6229
											60:[f20142<1.3863] yes=67,no=68,missing=68
												67:leaf=53.2967
												68:[f11580<-1.01328e-06] yes=75,no=76,missing=75
													75:[f4887<0.89588] yes=77,no=78,missing=78
														77:leaf=45.8228
														78:leaf=92.7588
													76:leaf=37.8536
									48:leaf=52.2571
								40:leaf=48.75
			8:leaf=34.258
		4:leaf=33.2507
	2:[f6733<0.89588] yes=5,no=6,missing=5
		5:[f354<5.99147] yes=9,no=10,missing=10
			9:leaf=87.8093
			10:[f275<1.24245] yes=15,no=16,missing=15
				15:[f7461<0.89588] yes=19,no=20,missing=19
					19:[f215<4.96981] yes=25,no=26,missing=26
						25:[f878<1.24245] yes=35,no=36,missing=35
							35:[f2718<0.89588] yes=41,no=42,missing=41
								41:[f1093<1.49787] yes=49,no=50,missing=49
									49:[f1137<1.86883] yes=55,no=56,missing=56
										55:[f2189<0.89588] yes=61,no=62,missing=61
											61:[f287<0.89588] yes=69,no=70,missing=70
												69:leaf=35.9652
												70:leaf=67.6975
											62:leaf=26.9136
										56:[f685<1.24245] yes=63,no=64,missing=63
											63:[f436<2.01268] yes=71,no=72,missing=72
												71:leaf=49.4745
												72:leaf=58.9823
											64:[f28<0.89588] yes=73,no=74,missing=73
												73:leaf=69.8436
												74:leaf=20.2316
									50:leaf=36.5914
								42:leaf=37.4171
							36:[f359<0.89588] yes=43,no=44,missing=44
								43:leaf=36.365
								44:leaf=74.8014
						26:[f4364<3.58352] yes=37,no=38,missing=38
							37:leaf=47.5733
							38:[f3576<1.03972] yes=45,no=46,missing=46
								45:leaf=43.3041
								46:[f61<2.74032] yes=51,no=52,missing=51
									51:[f593<1.3863] yes=57,no=58,missing=58
										57:leaf=48.3666
										58:[f5232<1.3863] yes=65,no=66,missing=66
											65:leaf=39.7753
											66:leaf=82.5081
									52:leaf=44.0088
					20:[f860<1.24245] yes=27,no=28,missing=28
						27:leaf=54.5917
						28:leaf=33.6135
				16:[f215<1.03972] yes=21,no=22,missing=21
					21:[f467<2.19722] yes=29,no=30,missing=30
						29:leaf=58.8439
						30:leaf=96.0663
					22:[f3395<1.3863] yes=31,no=32,missing=32
						31:leaf=35.1731
						32:leaf=71.5521
		6:[f983<3.58352] yes=11,no=12,missing=12
			11:leaf=43.4174
			12:leaf=31.1609
booster[70]:
0:[f2121<6.51619] yes=1,no=2,missing=2
	1:[f3530<1.49787] yes=3,no=4,missing=3
		3:[f9451<-1.01328e-06] yes=7,no=8,missing=7
			7:[f2869<1.35402] yes=13,no=14,missing=14
				13:leaf=45.3218
				14:[f2503<4.15889] yes=21,no=22,missing=22
					21:leaf=49.0573
					22:[f15094<0.89588] yes=29,no=30,missing=30
						29:leaf=34.9347
						30:leaf=85.1814
			8:leaf=33.6871
		4:leaf=32.6965
	2:[f6733<0.89588] yes=5,no=6,missing=5
		5:[f354<5.99147] yes=9,no=10,missing=10
			9:[f8<4.39445] yes=15,no=16,missing=16
				15:leaf=86.4792
				16:leaf=24.8727
			10:[f275<1.24245] yes=17,no=18,missing=17
				17:[f7461<0.89588] yes=23,no=24,missing=23
					23:[f215<4.96981] yes=31,no=32,missing=32
						31:[f341<1.24245] yes=41,no=42,missing=41
							41:[f5992<2.19722] yes=45,no=46,missing=46
								45:leaf=32.099
								46:[f8533<0.89588] yes=49,no=50,missing=49
									49:[f10973<4.39445] yes=53,no=54,missing=54
										53:leaf=36.9105
										54:[f1137<1.86883] yes=57,no=58,missing=57
											57:[f6331<1.49787] yes=61,no=62,missing=61
												61:[f11741<2.19722] yes=63,no=64,missing=64
													63:leaf=36.0768
													64:[f12552<0.89588] yes=65,no=66,missing=66
														65:leaf=37.4575
														66:[f793<0.89588] yes=67,no=68,missing=67
															67:[f26495<1.3863] yes=69,no=70,missing=70
																69:leaf=25.9575
																70:[f4276<1.6661] yes=71,no=72,missing=71
																	71:[f193<3.71238] yes=73,no=74,missing=73
																		73:[f4198<2.77259] yes=75,no=76,missing=76
																			75:leaf=32.0913
																			76:[f10424<2.19722] yes=77,no=78,missing=78
																				77:leaf=27.1627
																				78:[f22666<1.24245] yes=79,no=80,missing=80
																					79:leaf=33.376
																					80:leaf=67.2905
																		74:leaf=37.8169
																	72:leaf=26.002
															68:leaf=43.8507
												62:leaf=37.8506
											58:leaf=44.6122
									50:leaf=34.8162
							42:leaf=48.5955
						32:[f4364<3.58352] yes=43,no=44,missing=44
							43:leaf=46.5161
							44:[f3576<1.03972] yes=47,no=48,missing=48
								47:leaf=42.4019
								48:[f61<2.74032] yes=51,no=52,missing=51
									51:[f593<1.3863] yes=55,no=56,missing=56
										55:leaf=47.3301
										56:[f2725<1.24245] yes=59,no=60,missing=60
											59:leaf=38.7613
											60:leaf=80.5082
									52:leaf=43.0919
					24:[f860<1.24245] yes=33,no=34,missing=34
						33:leaf=53.4999
						34:leaf=32.8226
				18:[f215<1.03972] yes=25,no=26,missing=25
					25:[f467<2.19722] yes=35,no=36,missing=36
						35:leaf=57.5567
						36:leaf=93.7607
					26:[f4732<-1.01328e-06] yes=37,no=38,missing=37
						37:leaf=69.6114
						38:leaf=28.9797
		6:[f4291<0.89588] yes=11,no=12,missing=11
			11:[f2004<1.3863] yes=19,no=20,missing=20
				19:leaf=16.5131
				20:[f2294<2.77259] yes=27,no=28,missing=28
					27:leaf=25.2778
					28:[f2586<5.27811] yes=39,no=40,missing=40
						39:leaf=17.4536
						40:leaf=43.2227
			12:leaf=16.3922
booster[71]:
0:[f2121<6.51619] yes=1,no=2,missing=2
	1:[f2475<0.89588] yes=3,no=4,missing=3
		3:[f6242<0.89588] yes=7,no=8,missing=7
			7:[f2678<0.89588] yes=13,no=14,missing=13
				13:[f10186<1.3863] yes=21,no=22,missing=22
					21:leaf=48.53
					22:[f12661<2.77259] yes=29,no=30,missing=30
						29:leaf=33.5928
						30:[f12471<1.3863] yes=41,no=42,missing=42
							41:leaf=33.7598
							42:[f2503<2.19722] yes=49,no=50,missing=50
								49:leaf=46.5842
								50:[f4562<-1.01328e-06] yes=57,no=58,missing=57
									57:[f29514<-1.01328e-06] yes=63,no=64,missing=63
										63:[f7694<2.19722] yes=69,no=70,missing=70
											69:leaf=43.0725
											70:[f11553<-1.01328e-06] yes=75,no=76,missing=75
												75:leaf=89.4567
												76:leaf=36.4089
										64:leaf=35.9143
									58:leaf=42.2936
				14:leaf=54.3227
			8:leaf=51.4205
		4:leaf=57.5831
	2:[f6733<0.89588] yes=5,no=6,missing=5
		5:[f354<5.99147] yes=9,no=10,missing=10
			9:[f8<4.39445] yes=15,no=16,missing=16
				15:leaf=84.3663
				16:leaf=24.5618
			10:[f275<1.24245] yes=17,no=18,missing=17
				17:[f7461<0.89588] yes=23,no=24,missing=23
					23:[f215<4.96981] yes=31,no=32,missing=32
						31:[f878<1.24245] yes=43,no=44,missing=43
							43:[f2718<0.89588] yes=51,no=52,missing=51
								51:[f11484<2.19722] yes=59,no=60,missing=60
									59:leaf=30.6573
									60:[f17643<1.49787] yes=65,no=66,missing=66
										65:leaf=33.5411
										66:[f1706<1.24245] yes=71,no=72,missing=71
											71:[f16910<-1.01328e-06] yes=77,no=78,missing=77
												77:[f20497<1.3863] yes=81,no=82,missing=82
													81:leaf=31.5898
													82:[f659<1.35402] yes=83,no=84,missing=84
														83:leaf=38.6394
														84:[f15706<1.3863] yes=85,no=86,missing=86
															85:leaf=28.6692
															86:[f19821<-1.01328e-06] yes=87,no=88,missing=87
																87:[f467<0.89588] yes=89,no=90,missing=89
																	89:[f2209<0.89588] yes=91,no=92,missing=92
																		91:leaf=45.4929
																		92:[f4463<0.89588] yes=93,no=94,missing=93
																			93:[f16443<0.89588] yes=95,no=96,missing=95
																				95:[f48828<2.19722] yes=97,no=98,missing=98
																					97:leaf=30.9546
																					98:[f23097<0.89588] yes=99,no=100,missing=100
																						99:leaf=31.3904
																						100:leaf=63.1273
																				96:leaf=39.9028
																			94:leaf=25.799
																	90:leaf=40.5497
																88:leaf=36.7548
												78:leaf=28.2691
											72:leaf=31.269
								52:leaf=35.5094
							44:[f359<0.89588] yes=53,no=54,missing=54
								53:leaf=34.7097
								54:leaf=71.3675
						32:[f4364<3.58352] yes=45,no=46,missing=46
							45:leaf=45.4824
							46:[f3576<1.03972] yes=55,no=56,missing=56
								55:leaf=41.5186
								56:[f61<2.74032] yes=61,no=62,missing=61
									61:[f593<1.3863] yes=67,no=68,missing=68
										67:leaf=46.3159
										68:[f5232<1.3863] yes=73,no=74,missing=74
											73:leaf=37.7809
											74:[f6294<1.3863] yes=79,no=80,missing=80
												79:leaf=33.0955
												80:leaf=79.7607
									62:leaf=42.1942
					24:[f860<1.24245] yes=33,no=34,missing=34
						33:leaf=52.4299
						34:leaf=32.0503
				18:[f215<1.03972] yes=25,no=26,missing=25
					25:[f564<0.89588] yes=35,no=36,missing=36
						35:leaf=53.5984
						36:leaf=90.8828
					26:[f1646<1.9356] yes=37,no=38,missing=38
						37:leaf=46.2694
						38:[f14444<2.19722] yes=47,no=48,missing=48
							47:leaf=29.0218
							48:leaf=69.3251
		6:[f4291<0.89588] yes=11,no=12,missing=11
			11:[f7234<2.77259] yes=19,no=20,missing=20
				19:leaf=19.3887
				20:[f2294<2.77259] yes=27,no=28,missing=28
					27:leaf=24.7361
					28:[f3456<3.21888] yes=39,no=40,missing=40
						39:leaf=16.4821
						40:leaf=42.5983
			12:leaf=16.119
booster[72]:
0:[f2121<6.51619] yes=1,no=2,missing=2
	1:[f2475<0.89588] yes=3,no=4,missing=3
		3:[f25033<0.89588] yes=7,no=8,missing=8
			7:leaf=45.4829
			8:[f4549<1.24245] yes=13,no=14,missing=13
				13:[f1833<1.24245] yes=19,no=20,missing=19
					19:[f23486<-1.01328e-06] yes=27,no=28,missing=27
						27:[f16840<1.3863] yes=37,no=38,missing=38
							37:leaf=34.0594
							38:[f1929<1.3863] yes=45,no=46,missing=46
								45:leaf=52.3649
								46:[f8429<2.77259] yes=55,no=56,missing=56
									55:leaf=46.4841
									56:[f5936<-1.01328e-06] yes=61,no=62,missing=61
										61:[f39468<-1.01328e-06] yes=67,no=68,missing=67
											67:leaf=86.9403
											68:leaf=36.59
										62:leaf=35.9719
						28:leaf=32.4809
					20:leaf=52.5533
				14:leaf=52.1646
		4:leaf=56.2543
	2:[f6733<0.89588] yes=5,no=6,missing=5
		5:[f354<5.99147] yes=9,no=10,missing=10
			9:leaf=81.5541
			10:[f275<1.24245] yes=15,no=16,missing=15
				15:[f7461<0.89588] yes=21,no=22,missing=21
					21:[f215<4.96981] yes=29,no=30,missing=30
						29:[f878<1.24245] yes=39,no=40,missing=39
							39:[f2718<0.89588] yes=47,no=48,missing=47
								47:[f1093<1.49787] yes=57,no=58,missing=57
									57:[f1137<1.86883] yes=63,no=64,missing=64
										63:[f287<2.19722] yes=69,no=70,missing=70
											69:leaf=35.5611
											70:[f23172<3.89182] yes=75,no=76,missing=76
												75:leaf=30.2304
												76:[f185<1.77767] yes=79,no=80,missing=79
													79:[f1046<1.24245] yes=81,no=82,missing=81
														81:leaf=68.043
														82:leaf=49.6398
													80:leaf=34.6667
										64:[f685<1.24245] yes=71,no=72,missing=71
											71:[f436<2.01268] yes=77,no=78,missing=78
												77:leaf=45.7898
												78:leaf=54.7717
											72:leaf=64.2155
									58:leaf=33.9633
								48:leaf=34.7327
							40:[f359<0.89588] yes=49,no=50,missing=50
								49:leaf=34.0589
								50:leaf=69.6428
						30:[f4364<3.58352] yes=41,no=42,missing=42
							41:leaf=44.4717
							42:[f622<1.03972] yes=51,no=52,missing=52
								51:leaf=37.7639
								52:[f766<1.7006] yes=59,no=60,missing=59
									59:[f3272<0.89588] yes=65,no=66,missing=65
										65:[f631<2.19722] yes=73,no=74,missing=74
											73:leaf=37.0199
											74:leaf=74.8452
										66:leaf=35.4039
									60:leaf=38.9582
					22:[f860<1.24245] yes=31,no=32,missing=32
						31:leaf=51.3813
						32:leaf=31.2962
				16:[f1452<2.19101] yes=23,no=24,missing=24
					23:leaf=53.5248
					24:[f3395<0.89588] yes=33,no=34,missing=34
						33:leaf=27.6477
						34:[f13520<0.89588] yes=43,no=44,missing=44
							43:leaf=29.7848
							44:[f15759<1.31953] yes=53,no=54,missing=54
								53:leaf=30.8331
								54:leaf=74.6
		6:[f983<3.58352] yes=11,no=12,missing=12
			11:[f377<1.49787] yes=17,no=18,missing=17
				17:[f4544<2.19722] yes=25,no=26,missing=26
					25:leaf=18.1581
					26:[f749<0.89588] yes=35,no=36,missing=36
						35:leaf=27.9335
						36:leaf=49.104
				18:leaf=28.8079
			12:leaf=29.0157
booster[73]:
0:[f2121<1.24245] yes=1,no=2,missing=1
	1:[f6733<0.89588] yes=3,no=4,missing=3
		3:[f354<5.99147] yes=7,no=8,missing=8
			7:[f8<4.39445] yes=13,no=14,missing=14
				13:leaf=80.3126
				14:leaf=23.2353
			8:[f275<1.24245] yes=15,no=16,missing=15
				15:[f7461<0.89588] yes=21,no=22,missing=21
					21:[f215<1.24245] yes=29,no=30,missing=29
						29:[f702<5.1299] yes=39,no=40,missing=40
							39:leaf=35.2236
							40:[f16880<1.24245] yes=47,no=48,missing=48
								47:leaf=38.0159
								48:[f700<1.3863] yes=53,no=54,missing=54
									53:leaf=25.0406
									54:[f3524<-1.01328e-06] yes=59,no=60,missing=59
										59:[f9027<1.15129] yes=65,no=66,missing=66
											65:leaf=35.0542
											66:[f12661<1.3863] yes=69,no=70,missing=70
												69:leaf=27.3317
												70:[f13289<1.3863] yes=73,no=74,missing=74
													73:leaf=36.8021
													74:[f441<1.7006] yes=75,no=76,missing=75
														75:leaf=69.0253
														76:leaf=28.9733
										60:leaf=34.4168
						30:[f878<1.24245] yes=41,no=42,missing=41
							41:[f685<1.24245] yes=49,no=50,missing=49
								49:[f1137<1.86883] yes=55,no=56,missing=56
									55:[f8583<0.89588] yes=61,no=62,missing=62
										61:leaf=32.0642
										62:[f118<3.27268] yes=67,no=68,missing=68
											67:[f287<0.89588] yes=71,no=72,missing=72
												71:leaf=26.6503
												72:leaf=63.788
											68:leaf=39.1172
									56:[f436<2.19101] yes=63,no=64,missing=64
										63:leaf=42.6231
										64:leaf=54.013
								50:[f8893<1.3863] yes=57,no=58,missing=58
									57:leaf=26.8272
									58:leaf=63.5407
							42:leaf=64.6028
					22:[f860<1.24245] yes=31,no=32,missing=32
						31:leaf=50.3537
						32:leaf=30.5598
				16:[f215<1.03972] yes=23,no=24,missing=23
					23:[f467<2.19722] yes=33,no=34,missing=34
						33:leaf=53.1437
						34:[f168<0.89588] yes=43,no=44,missing=44
							43:leaf=58.8815
							44:leaf=95.5158
					24:[f4388<1.3863] yes=35,no=36,missing=36
						35:leaf=31.6835
						36:[f4732<-1.01328e-06] yes=45,no=46,missing=45
							45:[f500<2.39375] yes=51,no=52,missing=51
								51:leaf=65.662
								52:leaf=32.5941
							46:leaf=27.1928
		4:[f983<3.58352] yes=9,no=10,missing=10
			9:[f377<1.49787] yes=17,no=18,missing=17
				17:[f4544<2.19722] yes=25,no=26,missing=26
					25:leaf=17.8554
					26:leaf=44.5107
				18:leaf=28.1532
			10:leaf=28.3357
	2:[f2674<1.24245] yes=5,no=6,missing=5
		5:[f878<1.7006] yes=11,no=12,missing=11
			11:[f215<6.51619] yes=19,no=20,missing=20
				19:[f561<1.24245] yes=27,no=28,missing=27
					27:[f12765<1.3863] yes=37,no=38,missing=38
						37:leaf=37.1673
						38:leaf=91.0096
					28:leaf=60.6629
				20:leaf=67.123
			12:leaf=57.9887
		6:leaf=60.5035
booster[74]:
0:[f2121<1.24245] yes=1,no=2,missing=1
	1:[f6733<0.89588] yes=3,no=4,missing=3
		3:[f314<2.91741] yes=7,no=8,missing=7
			7:[f1137<1.86883] yes=13,no=14,missing=14
				13:[f457<3.21888] yes=21,no=22,missing=22
					21:leaf=30.5558
					22:[f287<2.19722] yes=31,no=32,missing=32
						31:leaf=43.455
						32:[f4859<0.89588] yes=43,no=44,missing=43
							43:[f7149<3.21888] yes=51,no=52,missing=52
								51:leaf=34.9487
								52:[f8693<2.19722] yes=57,no=58,missing=58
									57:leaf=31.3694
									58:[f34174<-1.01328e-06] yes=63,no=64,missing=63
										63:[f12559<5.1299] yes=69,no=70,missing=70
											69:leaf=36.2319
											70:[f1740<1.84444] yes=75,no=76,missing=75
												75:[f1452<2.19101] yes=79,no=80,missing=80
													79:leaf=50.5939
													80:leaf=69.9182
												76:leaf=28.0438
										64:leaf=31.9453
							44:leaf=44.9434
				14:[f7461<0.89588] yes=23,no=24,missing=23
					23:[f436<2.01268] yes=33,no=34,missing=34
						33:[f341<4.79579] yes=45,no=46,missing=46
							45:leaf=40.0644
							46:[f119<1.3863] yes=53,no=54,missing=54
								53:leaf=29.9178
								54:[f2477<0.89588] yes=59,no=60,missing=59
									59:[f4847<2.19722] yes=65,no=66,missing=66
										65:leaf=34.1018
										66:[f7220<1.3863] yes=71,no=72,missing=72
											71:leaf=32.0716
											72:[f3449<1.24245] yes=77,no=78,missing=77
												77:[f1865<0.89588] yes=81,no=82,missing=82
													81:leaf=27.5143
													82:[f35579<-1.01328e-06] yes=83,no=84,missing=83
														83:leaf=59.2433
														84:leaf=24.8839
												78:leaf=30.5576
									60:leaf=30.3619
						34:[f702<5.1299] yes=47,no=48,missing=48
							47:leaf=39.868
							48:[f3171<2.77259] yes=55,no=56,missing=56
								55:leaf=36.152
								56:[f6814<2.19722] yes=61,no=62,missing=62
									61:leaf=35.3839
									62:[f93<3.93927] yes=67,no=68,missing=68
										67:[f4846<0.89588] yes=73,no=74,missing=73
											73:leaf=63.2496
											74:leaf=36.3639
										68:leaf=33.1386
					24:[f860<1.24245] yes=35,no=36,missing=36
						35:leaf=49.3466
						36:leaf=29.7504
			8:[f500<2.39375] yes=15,no=16,missing=15
				15:[f10135<2.77259] yes=25,no=26,missing=26
					25:leaf=26.6975
					26:[f1595<0.89588] yes=37,no=38,missing=37
						37:[f5814<4.60517] yes=49,no=50,missing=50
							49:leaf=30.4135
							50:leaf=76.2574
						38:leaf=28.9607
				16:leaf=36.0136
		4:[f4291<0.89588] yes=9,no=10,missing=9
			9:[f2004<1.3863] yes=17,no=18,missing=18
				17:leaf=14.9831
				18:[f2294<2.77259] yes=27,no=28,missing=28
					27:leaf=22.9274
					28:[f490<1.24245] yes=39,no=40,missing=39
						39:leaf=44.3532
						40:leaf=31.4808
			10:leaf=14.8945
	2:[f2674<1.24245] yes=5,no=6,missing=5
		5:[f878<1.7006] yes=11,no=12,missing=11
			11:[f215<6.51619] yes=19,no=20,missing=20
				19:[f561<1.24245] yes=29,no=30,missing=29
					29:[f12765<1.3863] yes=41,no=42,missing=42
						41:leaf=36.5478
						42:leaf=88.7644
					30:leaf=59.2474
				20:leaf=65.4973
			12:leaf=56.6357
		6:leaf=59.063
booster[75]:
0:[f2121<1.24245] yes=1,no=2,missing=1
	1:[f6733<0.89588] yes=3,no=4,missing=3
		3:[f354<5.99147] yes=7,no=8,missing=8
			7:leaf=75.8765
			8:[f275<1.24245] yes=13,no=14,missing=13
				13:[f7461<0.89588] yes=19,no=20,missing=19
					19:[f215<1.49787] yes=27,no=28,missing=27
						27:[f436<1.7006] yes=39,no=40,missing=40
							39:[f5986<5.1299] yes=47,no=48,missing=48
								47:leaf=25.5755
								48:[f15681<2.19722] yes=55,no=56,missing=56
									55:leaf=25.8655
									56:leaf=53.3954
							40:[f301<2.85851] yes=49,no=50,missing=50
								49:[f3797<0.89588] yes=57,no=58,missing=57
									57:[f12607<2.19722] yes=61,no=62,missing=62
										61:leaf=36.296
										62:[f5551<1.3863] yes=65,no=66,missing=66
											65:leaf=39.0295
											66:[f10247<2.77259] yes=69,no=70,missing=70
												69:leaf=31.1659
												70:[f4288<-1.01328e-06] yes=73,no=74,missing=73
													73:[f427<0.89588] yes=77,no=78,missing=77
														77:[f22331<0.89588] yes=81,no=82,missing=82
															81:leaf=27.8962
															82:[f8964<0.89588] yes=85,no=86,missing=86
																85:leaf=34.0363
																86:leaf=69.7954
														78:leaf=27.8134
													74:leaf=32.1599
									58:leaf=34.124
								50:leaf=41.858
						28:[f5528<0.89588] yes=41,no=42,missing=42
							41:leaf=33.668
							42:[f6043<2.19722] yes=51,no=52,missing=52
								51:leaf=30.9664
								52:[f1518<1.3863] yes=59,no=60,missing=60
									59:leaf=24.8233
									60:[f33<4.29037] yes=63,no=64,missing=63
										63:[f8533<0.89588] yes=67,no=68,missing=67
											67:[f6100<1.24245] yes=71,no=72,missing=72
												71:leaf=37.8996
												72:[f1137<1.86883] yes=75,no=76,missing=75
													75:[f20622<0.89588] yes=79,no=80,missing=79
														79:[f11362<1.3863] yes=83,no=84,missing=84
															83:leaf=27.2149
															84:[f23368<1.3863] yes=87,no=88,missing=88
																87:leaf=23.7489
																88:[f4325<1.24245] yes=89,no=90,missing=89
																	89:leaf=57.2199
																	90:leaf=23.9304
														80:leaf=22.4378
													76:leaf=38.4842
											68:leaf=28.8971
										64:leaf=35.3759
					20:[f860<1.24245] yes=29,no=30,missing=30
						29:leaf=48.3597
						30:leaf=29.1396
				14:[f215<1.03972] yes=21,no=22,missing=21
					21:[f467<2.19722] yes=31,no=32,missing=32
						31:leaf=50.4132
						32:[f168<0.89588] yes=43,no=44,missing=44
							43:leaf=56.2049
							44:leaf=91.5573
					22:[f1646<1.9356] yes=33,no=34,missing=34
						33:leaf=41.8564
						34:[f10135<0.89588] yes=45,no=46,missing=46
							45:leaf=26.2274
							46:[f500<2.39375] yes=53,no=54,missing=53
								53:leaf=63.2062
								54:leaf=31.3077
		4:[f983<3.58352] yes=9,no=10,missing=10
			9:[f377<1.49787] yes=15,no=16,missing=15
				15:[f4544<2.19722] yes=23,no=24,missing=24
					23:leaf=17.0332
					24:[f749<0.89588] yes=35,no=36,missing=36
						35:leaf=25.804
						36:leaf=45.9334
				16:leaf=26.8562
			10:leaf=26.9432
	2:[f2674<1.24245] yes=5,no=6,missing=5
		5:[f878<1.7006] yes=11,no=12,missing=11
			11:[f215<1.24245] yes=17,no=18,missing=17
				17:leaf=64.9517
				18:[f561<1.24245] yes=25,no=26,missing=25
					25:[f7166<1.3863] yes=37,no=38,missing=38
						37:leaf=35.8664
						38:leaf=87.3163
					26:leaf=57.865
			12:leaf=55.3142
		6:leaf=57.6567
booster[76]:
0:[f2121<1.24245] yes=1,no=2,missing=1
	1:[f6733<0.89588] yes=3,no=4,missing=3
		3:[f314<2.91741] yes=7,no=8,missing=7
			7:[f1137<1.86883] yes=13,no=14,missing=14
				13:[f457<3.21888] yes=21,no=22,missing=22
					21:leaf=29.3062
					22:[f287<2.19722] yes=31,no=32,missing=32
						31:leaf=41.339
						32:[f4859<0.89588] yes=43,no=44,missing=43
							43:[f2776<0.89588] yes=51,no=52,missing=51
								51:[f561<2.13833] yes=57,no=58,missing=58
									57:leaf=51.2102
									58:[f1819<0.89588] yes=63,no=64,missing=64
										63:leaf=33.1366
										64:[f10247<2.77259] yes=69,no=70,missing=70
											69:leaf=30.5816
											70:[f11525<-1.01328e-06] yes=75,no=76,missing=75
												75:[f8693<2.19722] yes=81,no=82,missing=82
													81:leaf=26.8943
													82:[f318<3.58352] yes=85,no=86,missing=86
														85:leaf=28.3021
														86:[f12479<0.89588] yes=89,no=90,missing=89
															89:leaf=68.4481
															90:leaf=28.8497
												76:leaf=26.7598
								52:leaf=32.9368
							44:leaf=42.7884
				14:[f7461<0.89588] yes=23,no=24,missing=23
					23:[f436<2.01268] yes=33,no=34,missing=34
						33:[f341<4.79579] yes=45,no=46,missing=46
							45:leaf=38.0672
							46:[f119<1.3863] yes=53,no=54,missing=54
								53:leaf=28.4333
								54:[f1151<2.28217] yes=59,no=60,missing=60
									59:leaf=37.6222
									60:[f3449<1.24245] yes=65,no=66,missing=65
										65:[f3113<2.19722] yes=71,no=72,missing=72
											71:leaf=35.0111
											72:[f9021<2.77259] yes=77,no=78,missing=78
												77:leaf=26.73
												78:[f10763<0.89588] yes=83,no=84,missing=84
													83:leaf=22.9236
													84:[f8794<1.9356] yes=87,no=88,missing=88
														87:leaf=34.0636
